4.846900701522827148e-04,6.595789641141891479e-02,3.269889205694198608e-02,4.400927573442459106e-02,6.463765352964401245e-02,-1.108426004648208618e-01,1.096759214997291565e-01,-8.621306717395782471e-02,-1.204878836870193481e-02,1.007610931992530823e-01
3.841574117541313171e-02,-6.085161119699478149e-02,-4.571194946765899658e-02,5.474882572889328003e-02,-1.829082332551479340e-02,1.599773392081260681e-02,-4.741909727454185486e-02,8.204265683889389038e-02,-2.398592606186866760e-02,-4.016304016113281250e-02
2.555163204669952393e-01,-2.596385478973388672e-01,8.343977481126785278e-02,2.903821766376495361e-01,-4.415956512093544006e-02,1.293510496616363525e-01,-2.812004387378692627e-01,2.253417223691940308e-01,7.857353240251541138e-02,-2.077752798795700073e-01
5.361327528953552246e-01,-2.268042117357254028e-01,6.623997688293457031e-01,6.001274585723876953e-01,-4.404659271240234375e-01,-4.766886830329895020e-01,-6.594498157501220703e-01,1.191555261611938477e-01,-5.202834606170654297e-01,1.087302863597869873e-01
6.376940608024597168e-01,-6.215259432792663574e-01,7.845675349235534668e-01,7.727760672569274902e-01,-8.755695223808288574e-01,-5.402423143386840820e-01,-4.998041093349456787e-01,2.343936264514923096e-01,-5.808830261230468750e-01,2.477468252182006836e-01
8.482265472412109375e-01,-8.741845488548278809e-01,1.309403896331787109e+00,8.510707020759582520e-01,-1.180711746215820312e+00,-5.670385360717773438e-01,-9.093236327171325684e-01,8.717253059148788452e-02,-7.559401988983154297e-01,4.652113318443298340e-01
1.291511893272399902e+00,-1.046600222587585449e+00,1.969002723693847656e+00,7.745806574821472168e-01,-1.530998706817626953e+00,-5.028001070022583008e-01,-1.596740007400512695e+00,-3.147747516632080078e-01,-5.981788039207458496e-01,6.994351148605346680e-01
1.452243208885192871e+00,-9.114462137222290039e-01,2.140889406204223633e+00,8.799493312835693359e-01,-1.343210697174072266e+00,-6.531087160110473633e-01,-1.710083723068237305e+00,-7.963857799768447876e-02,-8.461730480194091797e-01,1.174588680267333984e+00
2.191219806671142578e+00,-9.076517820358276367e-01,1.457143902778625488e+00,8.716234564781188965e-01,-1.071212172508239746e+00,-8.061746954917907715e-01,-1.993584513664245605e+00,7.801614701747894287e-02,-4.567664265632629395e-01,9.007762074470520020e-01
2.544883489608764648e+00,-7.925824522972106934e-01,1.181436657905578613e+00,5.383784174919128418e-01,-2.653951048851013184e-01,-7.020702958106994629e-01,-1.337699413299560547e+00,2.235532253980636597e-01,-3.859278559684753418e-01,3.278537988662719727e-01
1.794201493263244629e+00,-8.650669455528259277e-01,8.084592819213867188e-01,8.351724594831466675e-02,1.020859703421592712e-01,-7.714027166366577148e-01,-8.666298985481262207e-01,9.338567405939102173e-02,-7.035501003265380859e-01,-2.180303260684013367e-02
9.500645995140075684e-01,-7.567869424819946289e-01,9.201113581657409668e-01,-3.116689622402191162e-01,-8.498425781726837158e-02,-1.958163231611251831e-01,-4.191021025180816650e-01,4.257265031337738037e-01,-5.656096935272216797e-01,-4.315357804298400879e-01
7.139093875885009766e-01,-6.994320750236511230e-01,9.906245470046997070e-01,-6.781101226806640625e-02,-6.362595558166503906e-01,3.712323904037475586e-01,-7.271863818168640137e-01,4.961560964584350586e-01,-4.206997156143188477e-01,-5.466309189796447754e-01
3.692218959331512451e-01,-6.356172561645507812e-01,2.297313451766967773e+00,7.798803448677062988e-01,-1.211985111236572266e+00,-2.611596882343292236e-01,-1.836586356163024902e+00,2.806825637817382812e-01,-7.513750791549682617e-01,-4.873747751116752625e-02
4.304481148719787598e-01,-8.271929621696472168e-01,1.922854423522949219e+00,1.360213041305541992e+00,-7.653682827949523926e-01,-5.376655459403991699e-01,-1.757278919219970703e+00,-1.202504709362983704e-01,-7.903805375099182129e-01,1.453286856412887573e-01
8.325060009956359863e-01,-1.065287590026855469e+00,1.321414828300476074e+00,1.391644001007080078e+00,-6.977168917655944824e-01,-3.449285924434661865e-01,-1.370131373405456543e+00,-2.139679193496704102e-01,-1.006323933601379395e+00,7.219207286834716797e-01
6.467896699905395508e-01,-6.231939196586608887e-01,9.834632873535156250e-01,8.496410250663757324e-01,-5.210701227188110352e-01,-6.713166832923889160e-02,-7.935217618942260742e-01,-7.768403738737106323e-02,-5.523552894592285156e-01,5.796554088592529297e-01
7.582001686096191406e-01,-4.630279839038848877e-01,7.919893264770507812e-01,7.414159923791885376e-02,-6.832335591316223145e-01,1.185648366808891296e-01,-7.031096816062927246e-01,2.803483232855796814e-02,-3.785753250122070312e-01,8.728724718093872070e-01
4.936179220676422119e-01,-8.282042294740676880e-02,4.327557086944580078e-01,7.080063223838806152e-03,-2.663457095623016357e-01,1.671272963285446167e-01,-5.853975415229797363e-01,-1.828939616680145264e-01,-8.142137527465820312e-02,3.447979986667633057e-01
5.460651591420173645e-02,1.231979653239250183e-01,5.628147348761558533e-02,-2.884615957736968994e-01,-7.180017977952957153e-02,3.203655779361724854e-01,-6.813378632068634033e-02,-6.847284734249114990e-02,2.151067554950714111e-01,-5.110030621290206909e-02
1.235991641879081726e-01,-1.168919056653976440e-01,-1.308180764317512512e-02,-8.413281291723251343e-02,-2.528628334403038025e-02,-4.515222273766994476e-03,2.404716983437538147e-02,6.309179216623306274e-02,-1.921441107988357544e-01,5.987694486975669861e-02
3.014724850654602051e-01,-2.228548079729080200e-01,3.072724044322967529e-01,-2.641431689262390137e-01,3.078939160332083702e-03,-2.088148444890975952e-01,-9.576661139726638794e-02,3.489176332950592041e-01,-1.307961791753768921e-01,-1.323015093803405762e-01
5.774034857749938965e-01,-7.545202970504760742e-02,2.956691384315490723e-01,-7.524853199720382690e-02,1.310276687145233154e-01,-2.785509824752807617e-01,-3.822036683559417725e-01,1.921094357967376709e-01,-3.032552301883697510e-01,-1.690121740102767944e-01
1.183523893356323242e+00,2.823820114135742188e-01,-1.304051838815212250e-02,-8.794631808996200562e-02,2.133515328168869019e-01,-3.139338493347167969e-01,-8.551882505416870117e-01,-9.738849848508834839e-02,-2.066358327865600586e-01,2.906000018119812012e-01
1.190091729164123535e+00,-1.133073959499597549e-02,5.694457888603210449e-01,8.610768616199493408e-02,-4.181690514087677002e-02,-6.983174085617065430e-01,-1.172869443893432617e+00,-4.763381779193878174e-01,-2.678956091403961182e-01,9.334255456924438477e-01
1.478893280029296875e+00,-1.097108423709869385e-01,1.035412907600402832e+00,6.263080835342407227e-01,-7.039761543273925781e-01,-5.652323365211486816e-01,-1.770810842514038086e+00,-3.308233022689819336e-01,-4.134700894355773926e-01,7.957277297973632812e-01
2.105769634246826172e+00,2.932004332542419434e-01,1.453481078147888184e+00,7.879090905189514160e-01,-9.129185676574707031e-01,-4.900303781032562256e-01,-2.453238964080810547e+00,-3.103641569614410400e-01,-3.195551037788391113e-01,1.012855052947998047e+00
2.389415025711059570e+00,4.684716463088989258e-01,1.624149799346923828e+00,8.014611601829528809e-01,-8.694573044776916504e-01,-5.392664074897766113e-01,-2.495223283767700195e+00,-3.985394239425659180e-01,-5.170988440513610840e-01,9.669611454010009766e-01
2.852979898452758789e+00,5.482168793678283691e-01,1.315722107887268066e+00,6.744801402091979980e-01,-8.329565525054931641e-01,-5.519284009933471680e-01,-2.846356630325317383e+00,1.128094177693128586e-02,-3.738311231136322021e-01,9.483642578125000000e-01
3.285561561584472656e+00,2.428199052810668945e-01,8.508825302124023438e-01,2.148425877094268799e-01,-4.856112003326416016e-01,-5.452951192855834961e-01,-3.266638755798339844e+00,2.075071781873703003e-01,-5.396081209182739258e-01,7.672708630561828613e-01
2.690240383148193359e+00,-3.855309635400772095e-02,7.853701710700988770e-01,3.014100790023803711e-01,4.324689880013465881e-02,-5.118848681449890137e-01,-2.768546104431152344e+00,4.021038413047790527e-01,-9.807613492012023926e-01,4.454810619354248047e-01
1.768322706222534180e+00,-3.099483549594879150e-01,7.185446023941040039e-01,5.383021757006645203e-02,1.401884853839874268e-01,-2.539011240005493164e-01,-1.966234803199768066e+00,5.721503496170043945e-01,-9.206163883209228516e-01,1.921016871929168701e-01
1.094893574714660645e+00,2.441941350698471069e-01,7.326079607009887695e-01,2.035451382398605347e-01,-9.432007372379302979e-02,-8.579665794968605042e-03,-1.715157270431518555e+00,6.270717382431030273e-01,-8.779156208038330078e-01,2.655959129333496094e-01
3.383944928646087646e-01,3.698830902576446533e-01,1.089688897132873535e+00,9.868447184562683105e-01,-1.139387637376785278e-01,-2.976517081260681152e-01,-2.303681612014770508e+00,3.756406903266906738e-01,-9.270539879798889160e-01,5.994057059288024902e-01
1.453441083431243896e-01,5.433762669563293457e-01,1.151247859001159668e+00,1.131432414054870605e+00,-2.891398966312408447e-01,-1.555873453617095947e-01,-2.257113695144653320e+00,2.257380783557891846e-01,-1.193927049636840820e+00,4.913255572319030762e-01
5.858800411224365234e-01,4.943300411105155945e-02,1.238083004951477051e+00,1.173733711242675781e+00,-4.829424321651458740e-01,9.715140610933303833e-02,-2.018671512603759766e+00,-7.214871793985366821e-02,-1.376849770545959473e+00,5.252252221107482910e-01
5.706890225410461426e-01,-2.218701392412185669e-01,1.203154325485229492e+00,1.482786893844604492e+00,-2.767597138881683350e-01,-4.089153558015823364e-02,-1.764352679252624512e+00,-1.874369829893112183e-01,-1.011477231979370117e+00,3.097459375858306885e-01
7.974811792373657227e-01,-2.105087488889694214e-01,1.191643118858337402e+00,1.047455668449401855e+00,-1.675163060426712036e-01,1.603864729404449463e-01,-1.726658225059509277e+00,-7.058926671743392944e-02,-5.101825594902038574e-01,2.254239618778228760e-01
6.364057660102844238e-01,9.546376019716262817e-02,8.156968951225280762e-01,4.905671179294586182e-01,-4.278275370597839355e-01,1.306404769420623779e-01,-1.030157804489135742e+00,-9.141647070646286011e-02,-9.347233921289443970e-03,2.643188834190368652e-01
4.398817718029022217e-01,1.588520407676696777e-01,1.583491414785385132e-01,1.135954260826110840e-01,-3.387442529201507568e-01,1.300462484359741211e-01,-3.325020968914031982e-01,1.926615387201309204e-01,2.215279042720794678e-01,2.533526718616485596e-01
-2.168225310742855072e-02,-3.440393209457397461e-01,-1.652121841907501221e-01,-3.113662898540496826e-01,3.075141310691833496e-01,-4.902243241667747498e-02,2.191987037658691406e-01,3.021980226039886475e-01,1.352917253971099854e-01,-8.605431020259857178e-02
2.540850937366485596e-01,-4.787770211696624756e-01,2.059496939182281494e-02,-3.455154001712799072e-01,6.578488349914550781e-01,1.006956472992897034e-01,1.521602123975753784e-01,6.452444195747375488e-01,1.984770782291889191e-02,-5.202445387840270996e-01
1.768325120210647583e-01,-4.403617978096008301e-02,-4.417963624000549316e-01,-3.395121693611145020e-01,7.424124479293823242e-01,-3.338721096515655518e-01,-1.474207043647766113e-01,2.588333487510681152e-01,-7.503319531679153442e-02,9.573538601398468018e-02
1.424873024225234985e-01,3.220887482166290283e-01,-7.913267612457275391e-01,-3.618284463882446289e-01,7.335578799247741699e-01,-2.542899549007415771e-01,-3.996411859989166260e-01,-8.895211666822433472e-02,1.832667142152786255e-01,6.872399449348449707e-01
6.902881264686584473e-01,2.871517539024353027e-01,-5.611633658409118652e-01,-4.352566301822662354e-01,4.400473535060882568e-01,-4.329277276992797852e-01,-1.189922690391540527e+00,-2.131033688783645630e-01,2.099151164293289185e-01,8.091554641723632812e-01
8.736801147460937500e-01,6.692067384719848633e-01,-4.318783581256866455e-01,-1.880246996879577637e-01,2.931575290858745575e-02,-3.274666965007781982e-01,-1.595613956451416016e+00,-3.761190474033355713e-01,1.520229429006576538e-01,8.301146030426025391e-01
9.647138118743896484e-01,1.180311918258666992e+00,-1.508764773607254028e-01,-1.891490668058395386e-01,-1.184847056865692139e-01,5.625511333346366882e-02,-1.846733450889587402e+00,-8.371201157569885254e-02,1.311554163694381714e-01,7.811765074729919434e-01
8.323891162872314453e-01,1.116423130035400391e+00,-2.258963137865066528e-01,-3.294233679771423340e-01,-1.315082758665084839e-01,3.577718734741210938e-01,-1.710958480834960938e+00,9.342910349369049072e-02,2.735682427883148193e-01,8.005753159523010254e-01
7.784321308135986328e-01,6.495805382728576660e-01,-3.605197072029113770e-01,-4.691931009292602539e-01,1.455392688512802124e-02,5.211429595947265625e-01,-1.582072615623474121e+00,3.015786111354827881e-01,3.322598338127136230e-01,5.767742991447448730e-01
9.508911371231079102e-01,3.315399587154388428e-01,-3.380373716354370117e-01,-3.867444992065429688e-01,-2.850355580449104309e-03,3.605628609657287598e-01,-1.635330677032470703e+00,1.509647667407989502e-01,2.662206068634986877e-02,3.985033333301544189e-01
7.606886625289916992e-01,7.122596353292465210e-02,-1.749193221330642700e-01,-2.169234305620193481e-01,3.839768767356872559e-01,4.684333503246307373e-01,-1.596370697021484375e+00,2.847624123096466064e-01,-1.463339328765869141e-01,-6.070614233613014221e-02
4.142045974731445312e-01,2.848873734474182129e-01,-1.182233169674873352e-01,-1.159597039222717285e-01,3.060424923896789551e-01,3.779846727848052979e-01,-1.075702071189880371e+00,4.782734215259552002e-01,-4.486852884292602539e-01,-9.425482898950576782e-02
1.943370997905731201e-01,6.385511159896850586e-01,-8.964195847511291504e-02,2.246557325124740601e-01,2.414783537387847900e-01,1.617833077907562256e-01,-8.200839161872863770e-01,5.364418029785156250e-01,-5.952213406562805176e-01,2.573300898075103760e-01
-1.656787842512130737e-01,6.154274344444274902e-01,-1.602227240800857544e-01,5.340542793273925781e-01,3.413250446319580078e-01,-7.472116500139236450e-03,-7.565401792526245117e-01,3.943930268287658691e-01,-8.255613446235656738e-01,4.514000713825225830e-01
-1.583501398563385010e-01,3.615338206291198730e-01,-3.055400028824806213e-02,5.289266109466552734e-01,1.685432642698287964e-01,2.433640137314796448e-02,-7.284824252128601074e-01,1.561510860919952393e-01,-1.053924083709716797e+00,3.210283815860748291e-01
-6.167709827423095703e-02,6.672958377748727798e-03,3.947285115718841553e-01,8.282099366188049316e-01,8.169876784086227417e-02,8.062328398227691650e-02,-7.328911423683166504e-01,6.499592214822769165e-02,-8.510915040969848633e-01,-3.333260118961334229e-02
-1.896768361330032349e-01,3.311761915683746338e-01,4.467938542366027832e-01,1.066050887107849121e+00,-1.314962357282638550e-01,-3.823545575141906738e-01,-7.782458066940307617e-01,1.017351150512695312e-01,-7.433438301086425781e-01,1.541740959510207176e-03
-1.205244287848472595e-01,3.295708298683166504e-01,4.935065209865570068e-01,1.274954676628112793e+00,-3.162450194358825684e-01,-1.379192769527435303e-01,-7.069966197013854980e-01,1.312533318996429443e-01,-2.806143462657928467e-01,-3.234063088893890381e-01
-2.018711715936660767e-01,1.842600554227828979e-01,1.324373632669448853e-01,1.192803978919982910e+00,-9.499385207891464233e-02,2.177089899778366089e-01,-6.485818624496459961e-01,1.966661214828491211e-01,2.543419003486633301e-01,-3.231450915336608887e-01
1.246636211872100830e-01,-2.423410117626190186e-01,2.775157392024993896e-01,6.580325365066528320e-01,-5.691761523485183716e-02,2.153081148862838745e-01,-7.095932364463806152e-01,1.338861733675003052e-01,2.791882753372192383e-01,-3.314615488052368164e-01
1.107979491353034973e-01,1.675406098365783691e-01,1.675345152616500854e-01,-1.861648559570312500e-01,4.427370727062225342e-01,-1.042419746518135071e-01,-5.341568216681480408e-02,2.002955526113510132e-01,9.703832864761352539e-02,-1.303252279758453369e-01
2.779252827167510986e-01,3.147057816386222839e-02,-3.009413182735443115e-01,-5.910257697105407715e-01,4.494577646255493164e-01,4.014845490455627441e-01,8.560425788164138794e-02,6.940100789070129395e-01,3.904898762702941895e-01,-2.748226225376129150e-01
2.607575654983520508e-01,2.437200099229812622e-01,-9.416645169258117676e-01,-8.038347363471984863e-01,6.146858930587768555e-01,-2.700870335102081299e-01,2.623522281646728516e-02,3.300100266933441162e-01,2.245951294898986816e-01,2.815857827663421631e-01
-1.936565339565277100e-01,2.899015545845031738e-01,-1.226031899452209473e+00,-7.241266369819641113e-01,6.840899586677551270e-01,-1.760732680559158325e-01,2.678807675838470459e-01,9.097445011138916016e-02,2.471819669008255005e-01,5.431332588195800781e-01
-2.329514026641845703e-01,2.676386833190917969e-01,-9.977496266365051270e-01,-6.131355762481689453e-01,3.890503048896789551e-01,8.471061289310455322e-02,-7.496341317892074585e-02,-3.230951428413391113e-01,9.579219669103622437e-02,3.734597265720367432e-01
2.253966778516769409e-02,7.025773525238037109e-01,-8.313912153244018555e-01,-3.327854573726654053e-01,7.370375096797943115e-02,2.361459136009216309e-01,-2.191766351461410522e-01,-2.908047139644622803e-01,1.702142879366874695e-02,5.873017311096191406e-01
4.511683247983455658e-03,7.791100144386291504e-01,-6.876396536827087402e-01,-4.800498485565185547e-01,1.487411111593246460e-01,3.707073628902435303e-01,-4.369536638259887695e-01,-1.637608706951141357e-01,6.059108674526214600e-02,5.541055202484130859e-01
-3.303604722023010254e-01,3.398745656013488770e-01,-3.633666336536407471e-01,-3.347061276435852051e-01,7.319186627864837646e-02,5.309476256370544434e-01,-4.215357005596160889e-01,3.278845176100730896e-02,2.323729395866394043e-01,2.609772086143493652e-01
-1.480164676904678345e-01,-4.074719846248626709e-01,-1.031607612967491150e-01,-1.789411306381225586e-01,1.744422763586044312e-01,6.083616018295288086e-01,-2.017928808927536011e-01,-1.972066909074783325e-01,3.300927877426147461e-01,1.903260499238967896e-01
1.124958395957946777e-01,-7.208062410354614258e-01,-2.068686038255691528e-01,-3.013005554676055908e-01,1.210407242178916931e-01,4.817129075527191162e-01,-2.461593747138977051e-01,-1.787523776292800903e-01,1.047646105289459229e-01,-2.073611170053482056e-01
4.706574380397796631e-01,-3.997310996055603027e-01,4.866735637187957764e-02,-3.187213838100433350e-01,3.209252059459686279e-01,6.220357418060302734e-01,-1.453884094953536987e-01,-5.749714747071266174e-02,-1.147151961922645569e-01,-5.514473319053649902e-01
1.656270027160644531e-01,3.674139827489852905e-02,4.600029438734054565e-03,-1.606093943119049072e-01,2.107245475053787231e-01,6.800384521484375000e-01,-6.614248454570770264e-02,7.234531454741954803e-03,-4.189542829990386963e-01,-7.127667069435119629e-01
2.547589316964149475e-02,1.489910185337066650e-01,3.167362138628959656e-02,8.567538112401962280e-02,-5.353595316410064697e-02,5.500097274780273438e-01,-3.246020376682281494e-01,1.847285330295562744e-01,-4.038025140762329102e-01,-7.180592417716979980e-01
-4.402376711368560791e-02,1.961150765419006348e-01,-4.399404302239418030e-02,1.501622051000595093e-01,2.345427870750427246e-01,1.062082275748252869e-01,-2.796479463577270508e-01,3.916892707347869873e-01,-3.594264090061187744e-01,-4.987536966800689697e-01
-1.861929893493652344e-01,-1.530997920781373978e-03,5.326008796691894531e-02,1.787010729312896729e-01,4.155168831348419189e-01,-6.909615546464920044e-02,-1.944033652544021606e-01,9.860529750585556030e-02,-3.628485500812530518e-01,-5.647904276847839355e-01
-9.632340073585510254e-02,4.766013100743293762e-02,2.473282814025878906e-02,4.604754149913787842e-01,7.918650656938552856e-02,-3.245542049407958984e-01,4.090140387415885925e-02,2.790840268135070801e-01,-4.000999629497528076e-01,-8.220695853233337402e-01
-3.944407701492309570e-01,4.832036197185516357e-01,1.499933302402496338e-01,4.875189661979675293e-01,-1.109699606895446777e-01,-7.195085883140563965e-01,3.636823296546936035e-01,3.173519670963287354e-01,-4.675773680210113525e-01,-7.476727366447448730e-01
-6.951177716255187988e-01,7.331944108009338379e-01,2.576030194759368896e-01,6.207288503646850586e-01,-1.284899413585662842e-01,-4.747312366962432861e-01,3.193372488021850586e-01,2.442982047796249390e-01,-2.571940124034881592e-01,-4.866236150264739990e-01
-6.909146308898925781e-01,1.344407200813293457e-01,5.133838057518005371e-01,9.377260804176330566e-01,3.119084537029266357e-01,4.355324804782867432e-01,-4.517683088779449463e-01,4.035544395446777344e-01,8.039180189371109009e-02,-3.888071179389953613e-01
-3.345456123352050781e-01,-1.567412167787551880e-01,7.864180803298950195e-01,8.529580831527709961e-01,1.661394983530044556e-01,2.685901820659637451e-01,-7.857382297515869141e-01,1.483129709959030151e-01,3.136584162712097168e-01,-3.252348005771636963e-01
6.962642669677734375e-01,3.921971321105957031e-01,-1.622810661792755127e-01,-4.910764694213867188e-01,1.867576241493225098e-01,7.344849705696105957e-01,-3.813496530055999756e-01,2.112243920564651489e-01,8.716521412134170532e-02,-1.204842701554298401e-01
5.410854220390319824e-01,2.265108823776245117e-01,-5.676985383033752441e-01,-8.332325220108032227e-01,2.616117894649505615e-01,6.745508313179016113e-01,-7.065396755933761597e-02,3.382648527622222900e-01,2.694694995880126953e-01,2.339063435792922974e-01
2.686321437358856201e-01,6.230641007423400879e-01,-1.266758084297180176e+00,-9.746552109718322754e-01,4.747540652751922607e-01,6.987073272466659546e-02,5.426915735006332397e-02,3.982479274272918701e-01,2.133444100618362427e-01,3.835965991020202637e-01
3.841908648610115051e-02,3.940254151821136475e-01,-1.293095827102661133e+00,-7.570217251777648926e-01,4.840016663074493408e-01,2.330703586339950562e-01,2.323071956634521484e-01,1.165696009993553162e-01,1.002715975046157837e-01,2.791389524936676025e-01
-1.509712785482406616e-01,2.425100207328796387e-01,-9.708145260810852051e-01,-5.625722408294677734e-01,1.172793433070182800e-01,4.706442356109619141e-01,2.737520635128021240e-01,-1.435827910900115967e-01,-1.622192263603210449e-01,7.225465029478073120e-02
-3.349271416664123535e-01,2.647727727890014648e-01,-6.376219391822814941e-01,-1.747148633003234863e-01,-1.403355747461318970e-01,4.474773406982421875e-01,2.325572967529296875e-01,-3.386552929878234863e-01,-2.544184923171997070e-01,1.165059879422187805e-01
-3.796730637550354004e-01,1.726261526346206665e-01,-4.635843932628631592e-01,-5.162797868251800537e-02,-1.840221509337425232e-02,4.474478065967559814e-01,-9.871694445610046387e-02,-1.856271773576736450e-01,-2.912753447890281677e-02,-1.779306493699550629e-02
-4.954713881015777588e-01,-1.881323903799057007e-01,-3.137436807155609131e-01,-1.852972358465194702e-01,-1.102848127484321594e-01,3.168226778507232666e-01,-9.098184108734130859e-02,-1.533326804637908936e-01,3.646812438964843750e-01,-7.757416367530822754e-02
-3.834721744060516357e-01,-4.457628130912780762e-01,-1.442549284547567368e-02,-2.219057381153106689e-01,-9.697815403342247009e-03,1.631224155426025391e-01,-1.069588661193847656e-01,-3.250433504581451416e-02,4.786612093448638916e-01,8.248785883188247681e-02
6.904774904251098633e-02,-6.561844348907470703e-01,-1.739813089370727539e-01,-2.160116285085678101e-01,3.336669504642486572e-02,1.806081533432006836e-01,-3.348590135574340820e-01,3.586568927858024836e-04,6.814959049224853516e-01,-9.893217682838439941e-02
2.918417155742645264e-01,-6.986266374588012695e-01,-1.141920164227485657e-01,-1.567001044750213623e-01,1.445713490247726440e-01,1.345589458942413330e-01,-3.275493979454040527e-01,-2.353414297103881836e-01,5.845505595207214355e-01,1.551536470651626587e-02
-6.794896721839904785e-02,-4.676243960857391357e-01,-1.110916212201118469e-01,-9.766051173210144043e-02,-3.621062636375427246e-02,3.810953497886657715e-01,-4.400905072689056396e-01,-1.216146796941757202e-01,6.001844406127929688e-01,1.937664300203323364e-01
3.070660308003425598e-02,-4.235041141510009766e-01,-1.134298071265220642e-01,3.089327923953533173e-02,-1.466857492923736572e-01,3.261346817016601562e-01,-5.268752574920654297e-01,-9.863413125276565552e-02,6.431518793106079102e-01,-1.478389799594879150e-01
-9.992958605289459229e-02,-2.098699659109115601e-01,-9.797846525907516479e-02,5.844782106578350067e-03,-7.934165745973587036e-02,-1.010684520006179810e-01,-4.088713526725769043e-01,1.545966714620590210e-01,3.862702548503875732e-01,-3.952755331993103027e-01
-1.482447981834411621e-01,-2.950077354907989502e-01,8.372738957405090332e-02,2.066997438669204712e-02,-2.943139337003231049e-02,-1.829579025506973267e-01,-5.060245990753173828e-01,1.926778107881546021e-01,1.293931901454925537e-01,-6.105405688285827637e-01
-1.779579073190689087e-01,4.577824473381042480e-02,5.014216527342796326e-03,1.842595189809799194e-01,8.680776506662368774e-02,-1.457580775022506714e-01,-2.121331840753555298e-01,4.314280748367309570e-01,5.136504187248647213e-04,-5.618872046470642090e-01
-2.107899934053421021e-01,5.606105327606201172e-01,1.615301147103309631e-02,5.173820853233337402e-01,-2.277401685714721680e-01,-4.763664305210113525e-01,4.363922774791717529e-01,2.852803766727447510e-01,-1.634808182716369629e-01,-5.839619636535644531e-01
-8.658308386802673340e-01,7.038213014602661133e-01,5.745624899864196777e-01,8.187920451164245605e-01,8.471426554024219513e-03,-3.337970674037933350e-01,3.142242133617401123e-01,4.223459959030151367e-01,-9.674690663814544678e-02,-5.672790408134460449e-01
-1.227010726928710938e+00,3.401494622230529785e-01,1.336195349693298340e+00,1.358817219734191895e+00,4.109215736389160156e-01,1.345186084508895874e-01,-5.218101143836975098e-01,1.787991821765899658e-01,1.300170272588729858e-02,-5.763120055198669434e-01
-7.813054323196411133e-01,1.331341713666915894e-01,1.617654919624328613e+00,1.272056937217712402e+00,1.463620215654373169e-01,1.765718460083007812e-01,-6.741377115249633789e-01,-5.431382358074188232e-02,1.571337133646011353e-01,-1.297421604394912720e-01
7.697449922561645508e-01,2.301847338676452637e-01,-4.033653438091278076e-01,-6.666252613067626953e-01,-2.418602705001831055e-01,1.011979699134826660e+00,6.290166173130273819e-03,6.521051526069641113e-01,-2.806757092475891113e-01,1.820804178714752197e-01
4.244887232780456543e-01,3.274511098861694336e-01,-8.873575329780578613e-01,-8.384168744087219238e-01,-2.151229418814182281e-02,9.212719202041625977e-01,3.456573784351348877e-01,4.438706338405609131e-01,3.012149333953857422e-01,4.485650062561035156e-01
2.961044013500213623e-01,3.960230350494384766e-01,-1.442270755767822266e+00,-1.125623941421508789e+00,7.377505302429199219e-01,5.206631422042846680e-01,3.617109358310699463e-01,1.679304987192153931e-01,-1.968484669923782349e-01,4.244696497917175293e-01
2.960793375968933105e-01,3.362998664379119873e-01,-1.332684874534606934e+00,-7.848123311996459961e-01,3.871495723724365234e-01,6.953242421150207520e-01,2.157300412654876709e-01,3.126038238406181335e-02,-2.513120174407958984e-01,2.100339233875274658e-01
-1.508954167366027832e-01,1.221326664090156555e-01,-7.193005084991455078e-01,-3.834661841392517090e-01,6.232130527496337891e-02,6.756830215454101562e-01,2.894899249076843262e-01,-1.820684596896171570e-02,-5.801951885223388672e-01,-1.568232327699661255e-01
-4.230510294437408447e-01,-1.143398582935333252e-01,-2.549958825111389160e-01,-1.185211446136236191e-02,4.385242238640785217e-02,5.108323693275451660e-01,3.733025491237640381e-01,1.225118711590766907e-02,-4.252426326274871826e-01,-1.962682455778121948e-01
-4.198091030120849609e-01,-2.430893294513225555e-02,-3.453949987888336182e-01,-1.338157504796981812e-01,-1.071266904473304749e-01,4.356102943420410156e-01,2.065335959196090698e-01,-8.121911436319351196e-02,9.133466333150863647e-02,-2.848075628280639648e-01
-4.347344040870666504e-01,-2.981067262589931488e-02,-1.531579047441482544e-01,-4.587118625640869141e-01,-2.415497452020645142e-01,3.763116896152496338e-01,1.351407468318939209e-01,8.979719877243041992e-02,4.348031580448150635e-01,-3.334175944328308105e-01
-3.891083002090454102e-01,-3.072738349437713623e-01,-1.237395629286766052e-01,-6.663014292716979980e-01,-3.091078102588653564e-01,1.370267570018768311e-01,9.049124270677566528e-02,3.831559717655181885e-01,6.189535856246948242e-01,-2.341337129473686218e-02
-2.227504998445510864e-01,-4.406710565090179443e-01,-4.057114943861961365e-02,-6.364235877990722656e-01,-2.997180819511413574e-02,-1.905335038900375366e-01,-2.797744572162628174e-01,1.047982200980186462e-01,7.785503864288330078e-01,1.364296078681945801e-01
2.064302563667297363e-01,-7.987825274467468262e-01,-2.820657491683959961e-01,-3.788635134696960449e-01,5.825458467006683350e-02,-3.716136217117309570e-01,-7.208130359649658203e-01,-7.511601783335208893e-03,1.213743448257446289e+00,5.892383456230163574e-01
-6.442169100046157837e-02,-9.173221588134765625e-01,-2.857250869274139404e-01,-1.460592076182365417e-02,6.772451568394899368e-03,-4.301972091197967529e-01,-6.769303083419799805e-01,-2.591195702552795410e-01,1.102299094200134277e+00,4.529218375682830811e-01
-2.795900590717792511e-02,-5.650067925453186035e-01,-2.743179202079772949e-01,-7.243598252534866333e-02,-1.139525696635246277e-01,-2.846030890941619873e-01,1.375341266393661499e-01,7.803333573974668980e-05,9.685251116752624512e-01,-1.115873754024505615e-01
-2.615220844745635986e-01,-3.011625409126281738e-01,-1.826310008764266968e-01,-1.954033821821212769e-01,-8.485992252826690674e-02,-8.353808522224426270e-02,1.578870415687561035e-01,-5.300069600343704224e-02,5.412125587463378906e-01,-5.281356573104858398e-01
-4.593998789787292480e-01,-2.145350575447082520e-01,-1.312821358442306519e-01,-1.164678782224655151e-01,2.351037459447979927e-03,2.831138372421264648e-01,1.671204864978790283e-01,1.361567825078964233e-01,2.611941993236541748e-01,-4.190468788146972656e-01
-2.093755900859832764e-01,1.317996829748153687e-01,9.558906406164169312e-02,1.863352581858634949e-02,7.291986048221588135e-02,1.677173674106597900e-01,2.345160543918609619e-01,-9.944751113653182983e-02,6.686159223318099976e-02,-2.513378560543060303e-01
-4.045505523681640625e-01,2.609809339046478271e-01,1.356182545423507690e-01,5.313767790794372559e-01,-2.199202775955200195e-01,1.512152999639511108e-01,4.511415064334869385e-01,1.561100184917449951e-01,1.856750100851058960e-01,-3.220531642436981201e-01
-8.289297223091125488e-01,7.661514282226562500e-01,8.313933610916137695e-01,1.703525900840759277e+00,-6.153607964515686035e-01,3.132223784923553467e-01,2.380489408969879150e-01,2.697005271911621094e-01,7.740378379821777344e-01,-6.739839911460876465e-01
-1.701451301574707031e+00,8.580213189125061035e-01,1.712116241455078125e+00,2.491197586059570312e+00,-5.365682840347290039e-01,4.644013047218322754e-01,3.590488061308860779e-02,2.069528549909591675e-01,8.950092196464538574e-01,-5.659831166267395020e-01
-1.143638372421264648e+00,2.047827988862991333e-01,1.978392958641052246e+00,2.103842496871948242e+00,1.406398117542266846e-01,4.234496057033538818e-01,-3.608860075473785400e-01,4.352211486548185349e-03,3.884314298629760742e-01,-2.357018887996673584e-01
3.814151287078857422e-01,-2.731972038745880127e-01,-6.080448031425476074e-01,-9.929079413414001465e-01,-5.585654377937316895e-01,1.168073058128356934e+00,5.708084702491760254e-01,8.009968400001525879e-01,-7.043933868408203125e-02,6.061159372329711914e-01
2.340498417615890503e-01,-2.077573388814926147e-01,-9.026493430137634277e-01,-1.101425766944885254e+00,1.424622833728790283e-01,1.077623248100280762e+00,4.325428009033203125e-01,4.212110638618469238e-01,-2.724748337641358376e-04,2.965304851531982422e-01
4.132913649082183838e-01,1.092363148927688599e-01,-1.276507019996643066e+00,-9.835381507873535156e-01,7.069633007049560547e-01,1.129932165145874023e+00,3.729502260684967041e-01,2.067592740058898926e-01,-4.425133168697357178e-01,3.371504545211791992e-01
3.001455962657928467e-01,2.254438959062099457e-02,-9.269564747810363770e-01,-5.637109875679016113e-01,5.391937494277954102e-01,1.159357190132141113e+00,5.302580446004867554e-02,3.006467968225479126e-02,-7.576658129692077637e-01,2.288704365491867065e-01
-2.333467006683349609e-01,-2.653843760490417480e-01,-3.960711658000946045e-01,-5.428036451339721680e-01,3.031616806983947754e-01,7.721177935600280762e-01,3.733052639290690422e-03,3.204795939382165670e-04,-5.200749635696411133e-01,-6.380794942378997803e-02
-4.279554486274719238e-01,-4.504771232604980469e-01,4.371916130185127258e-02,-3.243882954120635986e-01,-6.005322560667991638e-02,7.053310275077819824e-01,-2.045168355107307434e-02,-4.764179885387420654e-02,-4.636466801166534424e-01,-1.367807090282440186e-01
-3.979474604129791260e-01,-2.893433570861816406e-01,-2.288915961980819702e-02,-3.345472216606140137e-01,-2.502537071704864502e-01,4.223026931285858154e-01,-9.319408237934112549e-02,1.057095304131507874e-01,-1.822474002838134766e-01,-1.805758774280548096e-01
-4.216491878032684326e-01,-3.009067773818969727e-01,1.808457821607589722e-01,-5.475113913416862488e-02,-4.568898379802703857e-01,4.256299436092376709e-01,-1.248309612274169922e-01,-1.149481069296598434e-02,1.103768721222877502e-01,-4.978958889842033386e-02
-4.669294953346252441e-01,-3.938571512699127197e-01,2.664806544780731201e-01,-2.622043155133724213e-02,-3.325385749340057373e-01,3.758487403392791748e-01,-8.294872939586639404e-02,1.886223256587982178e-01,2.908031344413757324e-01,1.785904616117477417e-01
-1.236730143427848816e-01,-5.558557510375976562e-01,1.756225079298019409e-01,2.859333297237753868e-03,-5.232962593436241150e-02,2.506526112556457520e-01,4.143285006284713745e-02,3.489371538162231445e-01,3.398517370223999023e-01,3.347998261451721191e-01
7.097314596176147461e-01,-1.036913156509399414e+00,-1.715740561485290527e-01,-7.511376142501831055e-01,1.669121384620666504e-01,1.776432543992996216e-01,-5.005827173590660095e-02,5.665564537048339844e-01,4.487645030021667480e-01,5.866267085075378418e-01
7.030540704727172852e-01,-8.674943447113037109e-01,-5.097300410270690918e-01,-6.743229031562805176e-01,1.674198359251022339e-02,3.289499878883361816e-01,3.181383907794952393e-01,1.232238560914993286e-01,7.187952399253845215e-01,-7.217323035001754761e-02
1.534727960824966431e-01,-5.299871563911437988e-01,-4.501905739307403564e-01,-3.063156306743621826e-01,-1.265162676572799683e-01,3.866192102432250977e-01,7.113726735115051270e-01,3.434999659657478333e-02,3.852128982543945312e-01,-7.160398960113525391e-01
-1.573152244091033936e-01,-3.572507500648498535e-01,-4.570395052433013916e-01,-1.424564123153686523e-01,-1.596646010875701904e-02,4.185557365417480469e-01,5.241131186485290527e-01,-5.801810324192047119e-02,1.979064047336578369e-01,-6.772665977478027344e-01
-2.517141699790954590e-01,-7.675349712371826172e-02,-3.237433135509490967e-01,-2.234798967838287354e-01,9.863311052322387695e-02,6.490958333015441895e-01,2.928497791290283203e-01,-8.849769085645675659e-02,-8.375187404453754425e-03,-4.054676294326782227e-01
-2.903870642185211182e-01,1.700582057237625122e-01,-4.155872762203216553e-02,3.119419328868389130e-02,1.765922456979751587e-01,6.392142176628112793e-01,1.282368749380111694e-01,-1.147798672318458557e-01,1.665784865617752075e-01,-2.694557011127471924e-01
-4.111590087413787842e-01,1.118605881929397583e-01,8.166324347257614136e-02,5.833457112312316895e-01,-2.383152395486831665e-01,8.288139104843139648e-01,1.410222351551055908e-01,2.373821139335632324e-01,4.647201001644134521e-01,-4.739548563957214355e-01
-1.058245301246643066e+00,6.885282993316650391e-01,8.683565855026245117e-01,2.059450864791870117e+00,-1.115392684936523438e+00,1.247393131256103516e+00,2.878676354885101318e-01,7.410587668418884277e-01,1.714550614356994629e+00,-1.144427657127380371e+00
-2.336872100830078125e+00,1.344980835914611816e+00,1.957322359085083008e+00,2.624280214309692383e+00,-1.146145820617675781e+00,1.513018965721130371e+00,3.842880427837371826e-01,9.418023824691772461e-01,2.072952508926391602e+00,-1.118843317031860352e+00
-1.846303701400756836e+00,4.957837164402008057e-01,2.245615243911743164e+00,9.341627359390258789e-01,-2.188589125871658325e-01,1.253308176994323730e+00,-5.530953779816627502e-02,3.530015647411346436e-01,9.877248406410217285e-01,-4.341030716896057129e-01
3.614313006401062012e-01,-7.224262952804565430e-01,-8.287327885627746582e-01,-7.795231938362121582e-01,-6.320103406906127930e-01,1.135946512222290039e+00,1.149981021881103516e+00,1.098417162895202637e+00,1.967775970697402954e-01,4.784421026706695557e-01
5.134630203247070312e-01,-6.766430139541625977e-01,-1.120314955711364746e+00,-8.805316090583801270e-01,-1.132942065596580505e-01,1.256823897361755371e+00,5.612162351608276367e-01,9.525021910667419434e-01,3.620871528983116150e-02,1.754328161478042603e-01
1.032390072941780090e-01,-4.081778526306152344e-01,-6.373910903930664062e-01,-6.530091762542724609e-01,5.933755040168762207e-01,1.278894901275634766e+00,7.466908544301986694e-02,5.237187147140502930e-01,-6.727524399757385254e-01,3.592036664485931396e-01
-2.522822320461273193e-01,-3.275007903575897217e-01,-3.865873217582702637e-01,-1.467460989952087402e-01,2.299621999263763428e-01,1.136581778526306152e+00,3.968427423387765884e-03,1.931567937135696411e-01,-5.554578900337219238e-01,1.184205338358879089e-01
-4.153119623661041260e-01,-6.052599549293518066e-01,3.008274435997009277e-01,6.055366992950439453e-02,2.470029443502426147e-01,6.616062521934509277e-01,-3.072535395622253418e-01,7.457952946424484253e-02,-1.438361704349517822e-01,1.576454490423202515e-01
-4.563045799732208252e-01,-6.303790807723999023e-01,4.862954318523406982e-01,5.054462552070617676e-01,1.124002784490585327e-01,2.350716292858123779e-01,-1.658127009868621826e-01,2.464248538017272949e-01,-2.734026908874511719e-01,1.836644858121871948e-01
-4.347540438175201416e-01,-4.875161051750183105e-01,6.630167961120605469e-01,7.467887997627258301e-01,-9.591293334960937500e-02,7.307106256484985352e-02,-2.461944520473480225e-01,2.328395694494247437e-01,-2.138045728206634521e-01,2.476789206266403198e-01
-3.666932880878448486e-01,-6.154823303222656250e-01,6.319284439086914062e-01,1.227591395378112793e+00,-8.257636427879333496e-02,1.442871242761611938e-01,2.326279506087303162e-02,1.653475612401962280e-01,-3.335110098123550415e-02,2.923085689544677734e-01
-4.601309895515441895e-01,-3.850264847278594971e-01,5.130793452262878418e-01,1.477278590202331543e+00,-1.418541967868804932e-01,1.204781308770179749e-01,3.794618844985961914e-01,4.738188087940216064e-01,-1.889044046401977539e-02,2.497746050357818604e-01
-2.871787846088409424e-01,-6.118646860122680664e-01,6.806647777557373047e-01,1.114688992500305176e+00,2.129275798797607422e-01,3.633250594139099121e-01,4.580599367618560791e-01,1.038695454597473145e+00,4.084986634552478790e-03,3.113009035587310791e-01
6.580075025558471680e-01,-8.632146716117858887e-01,6.555330753326416016e-02,-6.355080008506774902e-01,6.819349527359008789e-01,4.721810519695281982e-01,7.050830721855163574e-01,9.934028387069702148e-01,2.043639123439788818e-01,-8.957779966294765472e-03
7.091949582099914551e-01,-1.010293886065483093e-01,-8.068443536758422852e-01,-5.745705962181091309e-01,4.993463754653930664e-01,5.592398047447204590e-01,9.522927403450012207e-01,8.139484375715255737e-02,2.728197872638702393e-01,-9.614852070808410645e-02
1.645567119121551514e-01,-2.419282793998718262e-01,-9.733799099922180176e-01,-2.939888536930084229e-01,-6.488559301942586899e-03,6.905242800712585449e-01,7.233784198760986328e-01,-4.079179167747497559e-01,2.709485590457916260e-01,-1.966567188501358032e-01
3.431156277656555176e-02,-5.362931489944458008e-01,-6.880958080291748047e-01,-1.712634116411209106e-01,2.402103543281555176e-01,4.119102954864501953e-01,3.779592216014862061e-01,-3.835700079798698425e-02,6.379289180040359497e-02,-2.395653575658798218e-01
2.490124702453613281e-01,-3.911303281784057617e-01,-5.837227702140808105e-01,-2.592992410063743591e-02,4.407675266265869141e-01,5.036044120788574219e-01,7.407168298959732056e-02,-3.692178428173065186e-02,1.520292758941650391e-01,-3.882989659905433655e-02
1.248617023229598999e-01,-4.912477731704711914e-01,-5.431060194969177246e-01,1.061409339308738708e-01,3.222678899765014648e-01,7.658689618110656738e-01,1.372083276510238647e-01,-1.029287055134773254e-01,2.201061993837356567e-01,1.052377521991729736e-01
6.144418939948081970e-02,-3.916538655757904053e-01,-1.155642718076705933e-01,5.801839828491210938e-01,1.292297840118408203e-01,5.221542119979858398e-01,-2.093176096677780151e-01,-9.092584997415542603e-02,6.489953398704528809e-01,-4.764816164970397949e-01
-3.989996612071990967e-01,4.193063974380493164e-01,7.625855207443237305e-01,1.282081604003906250e+00,-9.626033306121826172e-01,7.682679295539855957e-01,-5.886136889457702637e-01,4.841887056827545166e-01,1.433961629867553711e+00,-1.833381891250610352e+00
-1.798011064529418945e+00,1.402746200561523438e+00,2.255315542221069336e+00,8.866856694221496582e-01,-1.646172761917114258e+00,1.656060099601745605e+00,5.055282711982727051e-01,1.300391554832458496e+00,1.870792984962463379e+00,-1.841055274009704590e+00
-1.663267493247985840e+00,1.036625862121582031e+00,2.466158866882324219e+00,6.310670077800750732e-02,-6.008651852607727051e-01,1.402644634246826172e+00,3.354454934597015381e-01,1.122620344161987305e+00,1.196370363235473633e+00,-1.031750440597534180e+00
2.648996412754058838e-01,-9.374600052833557129e-01,-7.982791066169738770e-01,-4.705268442630767822e-01,-3.692511022090911865e-01,8.107034564018249512e-01,1.145696997642517090e+00,1.146728634834289551e+00,-1.334661152213811874e-02,6.291648149490356445e-01
-8.055768907070159912e-02,-7.652531266212463379e-01,-8.249054551124572754e-01,-1.445648223161697388e-01,-9.462762624025344849e-02,1.070716500282287598e+00,6.829927563667297363e-01,9.911389946937561035e-01,-2.065499424934387207e-01,3.519381284713745117e-01
-4.611013233661651611e-01,-5.641208887100219727e-01,-2.021046280860900879e-01,4.665399193763732910e-01,3.738028705120086670e-01,9.907160401344299316e-01,1.712323278188705444e-01,6.875481605529785156e-01,-2.528280913829803467e-01,3.511051833629608154e-01
-7.811015844345092773e-01,-5.720500946044921875e-01,3.076758086681365967e-01,1.160829544067382812e+00,2.071670442819595337e-01,1.392585784196853638e-01,8.887564763426780701e-03,3.967325389385223389e-01,1.455129384994506836e-01,3.219994902610778809e-01
-8.240553736686706543e-01,-4.781425297260284424e-01,4.447298347949981689e-01,1.818764328956604004e+00,8.030168712139129639e-02,-3.607060015201568604e-01,-1.696938425302505493e-01,2.936950027942657471e-01,4.218642413616180420e-01,9.329129010438919067e-02
-6.949237585067749023e-01,-3.396357297897338867e-01,6.271144747734069824e-01,2.212962150573730469e+00,2.964298725128173828e-01,-5.608699321746826172e-01,6.864314526319503784e-02,3.519816696643829346e-01,1.099094152450561523e-01,3.777543008327484131e-01
-4.102282822132110596e-01,-3.510786294937133789e-01,3.472557961940765381e-01,1.802435278892517090e+00,3.527809083461761475e-01,-6.123385429382324219e-01,8.716860413551330566e-02,2.425447106361389160e-01,8.064807206392288208e-02,3.137083947658538818e-01
-5.708201527595520020e-01,-3.543229028582572937e-02,5.476472154259681702e-02,1.285373330116271973e+00,2.828361690044403076e-01,-6.661000251770019531e-01,2.203699797391891479e-01,3.886499702930450439e-01,3.570202291011810303e-01,2.201956957578659058e-01
-4.795843958854675293e-01,5.605161786079406738e-01,3.104210831224918365e-02,1.371323823928833008e+00,1.395305097103118896e-01,-4.730108082294464111e-01,9.277197718620300293e-02,4.535593986511230469e-01,3.087517023086547852e-01,1.208038106560707092e-01
-5.804494619369506836e-01,6.111872792243957520e-01,5.674631595611572266e-01,1.074578046798706055e+00,9.195072054862976074e-01,-5.133026242256164551e-01,-4.966482892632484436e-02,4.089492261409759521e-01,4.501214027404785156e-01,-4.392462968826293945e-01
-3.986892402172088623e-01,-4.714099317789077759e-02,6.386420726776123047e-01,-7.714180648326873779e-02,1.301540613174438477e+00,-6.098269224166870117e-01,5.873019695281982422e-01,-3.376661799848079681e-03,1.546100378036499023e-01,-3.785220384597778320e-01
-2.639462053775787354e-01,1.383569389581680298e-01,-2.934551537036895752e-01,-1.235987097024917603e-01,8.375787734985351562e-01,-2.914871573448181152e-01,5.172152519226074219e-01,-6.935451030731201172e-01,-6.122507154941558838e-02,1.358937472105026245e-01
-4.444817006587982178e-01,-1.650225929915904999e-02,-6.702927947044372559e-01,1.485920101404190063e-01,2.902974486351013184e-01,1.935655809938907623e-02,2.402756363153457642e-01,-4.787371158599853516e-01,7.169617712497711182e-02,3.992081284523010254e-01
1.370723843574523926e-01,-5.223001241683959961e-01,-3.556411266326904297e-01,2.692899852991104126e-02,5.207459330558776855e-01,4.565482214093208313e-02,2.712703309953212738e-02,-2.158418148756027222e-01,1.537231504917144775e-01,4.075163900852203369e-01
3.185042142868041992e-01,-7.646050453186035156e-01,-3.135027885437011719e-01,1.651688069105148315e-01,6.166610121726989746e-01,-4.022097960114479065e-02,1.845449805259704590e-01,-6.022918820381164551e-01,-7.536503672599792480e-02,3.245986998081207275e-01
2.937723696231842041e-01,-1.277876019477844238e+00,-3.950703740119934082e-01,5.796217918395996094e-01,4.266863763332366943e-01,-1.856500282883644104e-02,-1.620674580335617065e-01,-6.739673614501953125e-01,-2.911254577338695526e-02,4.790866971015930176e-01
5.995290875434875488e-01,-1.477884531021118164e+00,-6.081393361091613770e-01,8.877598047256469727e-01,2.214705497026443481e-01,-8.382472991943359375e-01,-6.921053528785705566e-01,-6.372158527374267578e-01,-4.016172140836715698e-02,-2.570161223411560059e-01
6.794995665550231934e-01,-1.003321290016174316e+00,-1.546059735119342804e-02,4.106365442276000977e-01,-1.811130493879318237e-01,-1.023878693580627441e+00,-1.375195741653442383e+00,-3.238525092601776123e-01,1.378293484449386597e-01,-1.428023576736450195e+00
-4.062777459621429443e-01,2.346912920475006104e-01,1.436592340469360352e+00,-6.150562763214111328e-01,-8.382245302200317383e-01,4.560579955577850342e-01,-3.585978150367736816e-01,5.525756478309631348e-01,7.112743854522705078e-01,-1.848292827606201172e+00
-8.942450881004333496e-01,1.762892007827758789e-01,2.057732343673706055e+00,-9.138002991676330566e-01,-5.096305608749389648e-01,9.007377624511718750e-01,2.899450957775115967e-01,1.172834992408752441e+00,9.960408806800842285e-01,-1.278914809226989746e+00
-1.083709001541137695e-01,-8.275380730628967285e-01,-5.826583504676818848e-01,-5.323534831404685974e-02,-1.726303696632385254e-01,5.104900598526000977e-01,8.444198966026306152e-01,8.094550967216491699e-01,-2.797183692455291748e-01,3.015755116939544678e-01
-6.110352277755737305e-01,-8.832738399505615234e-01,-6.873485445976257324e-01,1.333032250404357910e-01,1.177072674036026001e-01,8.566721081733703613e-01,4.116672277450561523e-01,7.375575304031372070e-01,-2.985499501228332520e-01,5.157654881477355957e-01
-8.805556893348693848e-01,-5.235279798507690430e-01,-1.089528389275074005e-02,1.232461333274841309e+00,2.790288627147674561e-01,7.364016026258468628e-02,3.209118247032165527e-01,4.873091578483581543e-01,2.536318898200988770e-01,6.346697807312011719e-01
-1.043252587318420410e+00,-2.654872536659240723e-01,1.516633182764053345e-01,2.301893711090087891e+00,-4.933935776352882385e-02,-8.546293973922729492e-01,1.238889545202255249e-01,3.580455482006072998e-01,6.016224026679992676e-01,4.409736394882202148e-01
-5.600989460945129395e-01,1.360853482037782669e-02,-3.891470655798912048e-02,2.600149869918823242e+00,-3.550624847412109375e-02,-1.406451106071472168e+00,3.796041905879974365e-01,3.346965312957763672e-01,5.562424063682556152e-01,1.432872563600540161e-01
-3.190084993839263916e-01,2.255567610263824463e-01,1.085166037082672119e-01,1.714402675628662109e+00,3.283155560493469238e-01,-9.483929276466369629e-01,4.487959146499633789e-01,3.061136305332183838e-01,2.656530141830444336e-01,2.651199102401733398e-01
-3.146757185459136963e-01,2.272310256958007812e-01,-9.632904082536697388e-03,4.537249207496643066e-01,3.343331813812255859e-01,-7.961848378181457520e-01,3.873806595802307129e-01,2.216950356960296631e-01,1.856139153242111206e-01,4.551882296800613403e-02
-1.807698309421539307e-01,7.429695129394531250e-01,-4.065931737422943115e-01,2.594677507877349854e-01,-5.245363339781761169e-02,-6.989202499389648438e-01,2.009223848581314087e-01,2.481982409954071045e-01,3.573057651519775391e-01,9.980835765600204468e-02
-2.142593711614608765e-01,1.386462330818176270e+00,-2.740607364103198051e-03,5.700339674949645996e-01,-2.032569199800491333e-01,-7.100759744644165039e-01,-3.040204048156738281e-01,-2.522798180580139160e-01,3.451997339725494385e-01,-4.139876365661621094e-01
-5.818968415260314941e-01,8.222075104713439941e-01,4.576569497585296631e-01,2.396877259016036987e-01,8.481830954551696777e-01,-6.556983590126037598e-01,-1.952049881219863892e-01,-6.100788712501525879e-01,1.649744212627410889e-01,-7.174705862998962402e-01
-4.841489493846893311e-01,-1.072275936603546143e-01,6.832063794136047363e-01,-1.659631580114364624e-01,1.036734938621520996e+00,-6.706489324569702148e-01,5.786189064383506775e-02,-7.960661649703979492e-01,-1.527886688709259033e-01,-1.147730499505996704e-01
-3.718470036983489990e-01,1.260278522968292236e-01,-2.477645501494407654e-02,6.199473887681961060e-02,6.434637904167175293e-01,-3.651943206787109375e-01,-3.497963026165962219e-02,-8.893452882766723633e-01,-1.936942189931869507e-01,4.822400510311126709e-01
-3.265595138072967529e-01,6.477431952953338623e-02,-2.956797480583190918e-01,2.196288108825683594e-01,4.891697168350219727e-01,-8.352662622928619385e-02,-2.764362096786499023e-02,-5.089129805564880371e-01,1.330100148916244507e-01,6.203292012214660645e-01
-9.662896394729614258e-02,-1.369328349828720093e-01,2.088713943958282471e-01,2.359715849161148071e-01,4.262470901012420654e-01,-6.217712536454200745e-02,-1.740554533898830414e-02,-5.501227974891662598e-01,6.983117759227752686e-02,3.989963829517364502e-01
-1.931079179048538208e-01,-2.799049615859985352e-01,4.021242260932922363e-01,1.749611198902130127e-01,1.955608576536178589e-01,-1.447334140539169312e-01,2.413956820964813232e-01,-7.282918095588684082e-01,1.545060146600008011e-02,5.257980823516845703e-01
-9.034642577171325684e-02,-4.961176812648773193e-01,-9.871198982000350952e-02,5.787733197212219238e-01,-3.592193126678466797e-01,-7.320017218589782715e-01,-1.290844008326530457e-02,-7.604460716247558594e-01,-3.879809081554412842e-01,4.971264302730560303e-01
4.608504474163055420e-01,-1.009270310401916504e+00,-9.578221440315246582e-01,7.552165985107421875e-01,-5.618876218795776367e-01,-1.523465871810913086e+00,-6.175161600112915039e-01,-6.444454789161682129e-01,-7.355706691741943359e-01,2.605589628219604492e-01
1.181976437568664551e+00,-9.782607555389404297e-01,-8.959269523620605469e-01,1.616463996469974518e-02,-6.564614772796630859e-01,-1.461779713630676270e+00,-1.322791099548339844e+00,-3.510763049125671387e-01,-8.022218346595764160e-01,-3.641900420188903809e-01
5.869289040565490723e-01,-2.349399328231811523e-01,4.920699596405029297e-01,-1.313726305961608887e+00,-8.268930912017822266e-01,5.607991293072700500e-02,-5.982873439788818359e-01,-1.196645852178335190e-02,-2.995621860027313232e-01,-8.948852419853210449e-01
2.086683064699172974e-01,-1.174500584602355957e-01,1.521732330322265625e+00,-1.392742872238159180e+00,-8.588351607322692871e-01,1.090501427650451660e+00,-3.706216812133789062e-01,5.842190608382225037e-02,4.500443637371063232e-01,-9.445937871932983398e-01
-3.324394822120666504e-01,-3.519310355186462402e-01,3.690862562507390976e-03,8.132999390363693237e-02,-1.379367858171463013e-01,7.739889621734619141e-02,6.344065070152282715e-01,8.170779943466186523e-01,9.294249862432479858e-02,-2.681581974029541016e-01
-5.661856532096862793e-01,-3.189504146575927734e-01,4.495177126955240965e-04,-2.782757021486759186e-02,3.758735954761505127e-01,5.979765057563781738e-01,2.889901101589202881e-01,1.212098896503448486e-01,-1.817055940628051758e-01,6.976692676544189453e-01
-5.937818288803100586e-01,2.736364901065826416e-01,-3.172723948955535889e-01,3.245338201522827148e-01,5.922604352235794067e-02,4.397030770778656006e-01,4.051990807056427002e-01,-2.843599617481231689e-01,2.941621840000152588e-01,6.258324384689331055e-01
-1.160819232463836670e-01,2.874833345413208008e-01,-9.944643974304199219e-01,7.794227600097656250e-01,-4.983761608600616455e-01,-8.127720952033996582e-01,3.674511611461639404e-01,-1.560978442430496216e-01,2.847845554351806641e-01,3.323110342025756836e-01
3.114782273769378662e-01,5.459886193275451660e-01,-8.348851799964904785e-01,3.010118603706359863e-01,-6.331008672714233398e-01,-1.384591937065124512e+00,3.265959322452545166e-01,1.613542884588241577e-01,2.250327542424201965e-02,2.812265455722808838e-01
2.227299362421035767e-01,5.554450750350952148e-01,-4.195255935192108154e-01,-1.483764052391052246e-01,-4.624084532260894775e-01,-9.080223441123962402e-01,6.327300071716308594e-01,9.223504364490509033e-02,-2.370997518301010132e-02,-1.122335810214281082e-02
2.199800461530685425e-01,6.683064699172973633e-01,-1.889518052339553833e-01,-3.695751726627349854e-01,-3.578033447265625000e-01,-4.700766503810882568e-01,3.820182383060455322e-01,1.899148821830749512e-01,1.175247281789779663e-01,-1.045638993382453918e-01
-1.896054297685623169e-02,6.975771784782409668e-01,-9.771520644426345825e-02,6.366425007581710815e-02,-6.953669786453247070e-01,-2.841111421585083008e-01,-3.011687397956848145e-01,-3.462466597557067871e-02,4.710632935166358948e-02,-1.051995754241943359e-01
-1.454398036003112793e-01,7.699301838874816895e-01,1.419989466667175293e-01,8.655580133199691772e-02,-2.830067873001098633e-01,-1.067317649722099304e-01,-6.525141596794128418e-01,-6.738928556442260742e-01,-4.007675498723983765e-02,-3.977758884429931641e-01
-3.558038473129272461e-01,2.636810950934886932e-02,5.267489552497863770e-01,-4.181199669837951660e-01,7.600402235984802246e-01,-1.344486698508262634e-02,-2.925058603286743164e-01,-6.891567111015319824e-01,-4.142020642757415771e-01,-5.210992097854614258e-01
-2.366545796394348145e-01,-1.351489126682281494e-01,6.289231777191162109e-01,-4.350614249706268311e-01,9.403756260871887207e-01,-7.840760797262191772e-02,4.543804749846458435e-02,-4.365909397602081299e-01,-6.908066272735595703e-01,9.928987920284271240e-02
-4.137018620967864990e-01,5.101065337657928467e-02,-8.340600878000259399e-03,1.030117571353912354e-01,3.810674846172332764e-01,-4.715882241725921631e-02,-2.878535538911819458e-02,-6.554009914398193359e-01,-3.570238947868347168e-01,5.744552016258239746e-01
-4.117860496044158936e-01,3.366225659847259521e-01,-5.321305990219116211e-01,2.567548155784606934e-01,2.236253321170806885e-01,8.367702364921569824e-02,3.892458379268646240e-01,-5.837410688400268555e-01,1.640142649412155151e-01,6.348578333854675293e-01
-2.568576931953430176e-01,3.869837224483489990e-01,-2.719033956527709961e-01,-1.429295390844345093e-01,-6.529355049133300781e-02,9.267325699329376221e-02,4.701440930366516113e-01,-2.629929184913635254e-01,1.171085238456726074e-01,3.329399526119232178e-01
-2.305693477392196655e-01,3.883723318576812744e-01,-1.873672008514404297e-01,-3.090923465788364410e-02,-4.314549565315246582e-01,-1.913181096315383911e-01,1.976122707128524780e-01,1.174688152968883514e-02,1.902660429477691650e-01,3.745261132717132568e-01
-8.037442713975906372e-02,1.369248330593109131e-01,-4.246332049369812012e-01,-5.594031536020338535e-04,-5.066661238670349121e-01,-4.954447150230407715e-01,1.987992078065872192e-01,2.719801962375640869e-01,-3.452761471271514893e-01,3.537436723709106445e-01
4.396435320377349854e-01,-1.343842893838882446e-01,-9.925616979598999023e-01,1.371980160474777222e-01,-4.609740972518920898e-01,-1.001782298088073730e+00,-3.082105815410614014e-01,4.642406105995178223e-01,-5.615320205688476562e-01,4.556370675563812256e-01
8.257096409797668457e-01,-1.603136062622070312e-01,-7.304100394248962402e-01,-3.725211322307586670e-01,-5.117644071578979492e-01,-5.216926932334899902e-01,-8.477452397346496582e-01,6.510998606681823730e-01,-4.586225450038909912e-01,1.452609896659851074e-01
1.291209697723388672e+00,9.633787721395492554e-02,1.300230622291564941e-01,-1.115665078163146973e+00,-9.613247513771057129e-01,7.873885035514831543e-01,-8.607707619667053223e-01,1.210777163505554199e-01,-4.884783029556274414e-01,-5.546566098928451538e-02
1.053562998771667480e+00,3.490535914897918701e-01,1.010846972465515137e+00,-1.744543075561523438e+00,-1.187907218933105469e+00,1.562057614326477051e+00,-7.589609026908874512e-01,-8.759428858757019043e-01,-1.839930117130279541e-01,-4.666016697883605957e-01
1.873870939016342163e-01,4.597276747226715088e-01,-2.731784880161285400e-01,-1.686232835054397583e-01,3.247090876102447510e-01,2.788243591785430908e-01,-2.871680855751037598e-01,4.412556886672973633e-01,3.451397418975830078e-01,-5.312169790267944336e-01
4.024682566523551941e-03,8.776273131370544434e-01,-8.017454296350479126e-02,-6.697002649307250977e-01,6.588958501815795898e-01,1.207578897476196289e+00,-2.877894639968872070e-01,-3.093288838863372803e-01,1.056092232465744019e-01,2.724825739860534668e-01
7.608230412006378174e-02,4.359611570835113525e-01,-3.173576295375823975e-01,-5.657113194465637207e-01,2.523448169231414795e-01,1.379993915557861328e+00,-9.337108582258224487e-02,-4.064942002296447754e-01,2.177847027778625488e-01,3.333873748779296875e-01
5.489229559898376465e-01,1.575192511081695557e-01,-9.282575249671936035e-01,-4.518604874610900879e-01,-4.746648371219635010e-01,3.670071363449096680e-01,1.447793990373611450e-01,-1.398601084947586060e-01,-1.497630178928375244e-01,1.513994187116622925e-01
7.766514420509338379e-01,1.497265249490737915e-01,-9.424064159393310547e-01,-6.042695045471191406e-01,-6.620004773139953613e-01,-6.635794639587402344e-01,4.317767024040222168e-01,-2.549594342708587646e-01,-3.697541952133178711e-01,3.416703045368194580e-01
5.837905406951904297e-01,3.460001051425933838e-01,-6.996009945869445801e-01,-2.719519734382629395e-01,-4.544188380241394043e-01,-8.849956989288330078e-01,6.720225811004638672e-01,-3.052041232585906982e-01,-1.418714821338653564e-01,3.140786290168762207e-01
3.678182959556579590e-01,1.924659758806228638e-01,-2.296457439661026001e-01,4.020059108734130859e-02,-4.191939532756805420e-01,-2.781571447849273682e-01,2.009504586458206177e-01,-2.142129838466644287e-01,-1.538995951414108276e-01,-1.655188649892807007e-01
2.392623275518417358e-01,-3.836939809843897820e-03,3.895076364278793335e-02,4.556477367877960205e-01,-6.570064425468444824e-01,-1.282263845205307007e-01,-6.674110889434814453e-01,-3.707296848297119141e-01,-6.827712804079055786e-02,4.557310417294502258e-02
-1.823717802762985229e-01,1.209873333573341370e-01,-4.879147931933403015e-02,1.898856014013290405e-01,-3.174845576286315918e-01,-1.838738024234771729e-01,-4.760825932025909424e-01,-7.398536801338195801e-01,-1.996837109327316284e-01,-2.996156215667724609e-01
-3.778056800365447998e-01,-1.156542971730232239e-01,6.747077703475952148e-01,-7.311456799507141113e-01,5.529981255531311035e-01,2.011093646287918091e-01,-8.396199345588684082e-02,-6.716439723968505859e-01,-7.405956387519836426e-01,-3.398228883743286133e-01
-4.413647651672363281e-01,3.854056596755981445e-01,7.292714118957519531e-01,-4.385165870189666748e-01,5.150359869003295898e-01,-1.162746325135231018e-01,2.377544790506362915e-01,-4.204092919826507568e-01,-1.021570086479187012e+00,4.836876392364501953e-01
-5.688278675079345703e-01,5.541301965713500977e-01,-3.222569227218627930e-01,1.794393658638000488e-01,-2.381211891770362854e-02,-3.571748360991477966e-02,3.675457537174224854e-01,-6.706230640411376953e-01,-5.428018569946289062e-01,7.144899964332580566e-01
-3.798662722110748291e-01,4.101184904575347900e-01,-6.942744255065917969e-01,1.805244386196136475e-01,-2.447107732295989990e-01,2.144231498241424561e-01,4.781640470027923584e-01,-5.242930650711059570e-01,1.158858686685562134e-01,5.868873596191406250e-01
1.297641247510910034e-01,4.115132987499237061e-01,-5.539911389350891113e-01,-2.393029034137725830e-01,-3.134315311908721924e-01,8.743767440319061279e-02,2.898614406585693359e-01,2.927493453025817871e-01,8.945469558238983154e-02,3.038350045680999756e-01
2.663396894931793213e-01,6.059829592704772949e-01,-7.198616266250610352e-01,-1.383735090494155884e-01,-3.651253581047058105e-01,1.299476325511932373e-01,1.419930756092071533e-01,5.836947560310363770e-01,6.952989101409912109e-02,3.702603578567504883e-01
-1.655684038996696472e-02,1.052695810794830322e-01,-7.615556120872497559e-01,-1.746349930763244629e-01,-1.594268679618835449e-01,1.143962293863296509e-01,2.478294819593429565e-01,6.010814309120178223e-01,-2.055918276309967041e-01,4.657599329948425293e-01
7.887806743383407593e-03,3.445238992571830750e-02,-6.267651915550231934e-01,-1.938780769705772400e-02,1.087066009640693665e-01,8.607224375009536743e-02,-1.644091457128524780e-01,6.346057653427124023e-01,-4.628588259220123291e-02,2.433424443006515503e-02
4.906914830207824707e-01,9.992103278636932373e-02,1.465163677930831909e-01,-3.925788998603820801e-01,-2.096948586404323578e-02,4.616082012653350830e-01,-6.629161834716796875e-01,6.244128942489624023e-01,2.598017752170562744e-01,1.795970834791660309e-02
1.614823579788208008e+00,6.200104355812072754e-01,8.257461190223693848e-01,-1.083315372467041016e+00,-1.048862695693969727e+00,1.332486271858215332e+00,-1.233873009681701660e+00,-1.421940326690673828e-01,-3.793262243270874023e-01,3.188988268375396729e-01
1.497780084609985352e+00,8.525775671005249023e-01,7.454949021339416504e-01,-1.486116647720336914e+00,-1.191619157791137695e+00,1.499027609825134277e+00,-9.135065078735351562e-01,-1.031113862991333008e+00,-5.050324201583862305e-01,4.506883621215820312e-01
1.491477638483047485e-01,3.265809118747711182e-01,-7.327582836151123047e-01,-4.297273159027099609e-01,5.610924959182739258e-01,3.556654453277587891e-01,-1.437037140130996704e-01,5.574509501457214355e-01,1.168072670698165894e-01,-3.323880583047866821e-02
3.087669312953948975e-01,1.150768518447875977e+00,-5.995013117790222168e-01,-9.019687175750732422e-01,5.431311726570129395e-01,1.126596927642822266e+00,-5.280663967132568359e-01,-1.462067961692810059e-01,3.538723587989807129e-01,1.628335714340209961e-01
3.552992939949035645e-01,7.744939327239990234e-01,-1.318003144115209579e-02,-8.583435416221618652e-01,3.205497264862060547e-01,1.742345571517944336e+00,-3.373988568782806396e-01,-1.074700132012367249e-01,2.504294216632843018e-01,8.598549664020538330e-02
3.576582074165344238e-01,4.441232085227966309e-01,-1.136434599757194519e-01,-6.536043882369995117e-01,-3.566205501556396484e-01,1.030922651290893555e+00,-7.662194222211837769e-02,-1.143326014280319214e-01,2.012886554002761841e-01,-1.251736283302307129e-01
5.714578628540039062e-01,4.212277233600616455e-01,-1.045602932572364807e-01,-2.735971510410308838e-01,-5.498733520507812500e-01,1.869044601917266846e-01,1.763434112071990967e-01,-2.506417632102966309e-01,4.629591014236211777e-03,-8.970311284065246582e-02
4.525612890720367432e-01,-4.913742095232009888e-02,-9.382407367229461670e-02,1.983124762773513794e-01,-3.071494400501251221e-01,-3.764724731445312500e-01,6.237609982490539551e-01,-9.955255985260009766e-01,2.016684971749782562e-02,2.220811098814010620e-01
5.320278406143188477e-01,-3.891913294792175293e-01,1.109567508101463318e-01,4.683718979358673096e-01,-4.465058743953704834e-01,-3.040646016597747803e-01,3.468436598777770996e-01,-1.012068510055541992e+00,-1.576749607920646667e-02,-4.173003882169723511e-02
6.386745572090148926e-01,-6.577087640762329102e-01,2.823485434055328369e-01,6.850642561912536621e-01,-7.311956882476806641e-01,-3.315323889255523682e-01,-1.146309003233909607e-01,-1.068183302879333496e+00,-2.381772175431251526e-02,-1.759973168373107910e-02
8.215456455945968628e-02,-4.041561782360076904e-01,4.279230833053588867e-01,3.689119517803192139e-01,-6.970360279083251953e-01,-2.074537724256515503e-01,5.953475832939147949e-02,-1.462046861648559570e+00,-2.082332670688629150e-01,6.884495262056589127e-03
-1.840219199657440186e-01,-4.876167327165603638e-02,8.223255872726440430e-01,-5.039823055267333984e-01,1.046638563275337219e-02,9.836969524621963501e-02,6.406086683273315430e-01,-9.681129455566406250e-01,-4.615939557552337646e-01,2.705561220645904541e-01
-5.677577257156372070e-01,4.146521091461181641e-01,3.795177936553955078e-01,-3.777271807193756104e-01,-1.872896961867809296e-02,-4.841252416372299194e-02,7.289572954177856445e-01,-5.544730424880981445e-01,-8.921388983726501465e-01,8.822017908096313477e-01
-5.295485854148864746e-01,4.664798676967620850e-01,-5.057748556137084961e-01,1.835175305604934692e-01,-3.060823082923889160e-01,2.871619164943695068e-01,2.153004854917526245e-01,-4.719947874546051025e-01,-2.002489119768142700e-01,5.905017256736755371e-01
-1.366651337593793869e-02,4.629245102405548096e-01,-6.332998275756835938e-01,1.206903532147407532e-01,-3.142817616462707520e-01,1.424054354429244995e-01,-7.382891327142715454e-02,-1.599863317096605897e-04,2.540007531642913818e-01,3.785753995180130005e-02
3.756625056266784668e-01,5.578033328056335449e-01,-2.369106262922286987e-01,-1.913820058107376099e-01,-1.635485291481018066e-01,-7.008179277181625366e-02,-2.163197100162506104e-01,3.575188815593719482e-01,1.640095608308911324e-03,3.469071537256240845e-02
1.746640205383300781e-01,5.306210517883300781e-01,-3.461571335792541504e-01,-3.852910920977592468e-02,-1.087821871042251587e-01,-1.352458000183105469e-01,-7.802966982126235962e-02,3.457472026348114014e-01,-2.515868470072746277e-02,2.631395459175109863e-01
1.483651399612426758e-01,5.113102793693542480e-01,-2.951517105102539062e-01,-6.996776163578033447e-02,2.543753981590270996e-01,8.666184544563293457e-02,6.646898388862609863e-02,3.366810679435729980e-01,4.453916475176811218e-02,4.669512808322906494e-01
1.584744602441787720e-01,2.550361752510070801e-01,-4.749101400375366211e-02,-2.109059989452362061e-01,2.464905083179473877e-01,4.295616447925567627e-01,-4.350586235523223877e-01,2.032173275947570801e-01,2.692720890045166016e-01,1.160579025745391846e-01
2.897549569606781006e-01,4.842119216918945312e-01,7.581180930137634277e-01,-3.746166229248046875e-01,-5.972340703010559082e-01,1.106113195419311523e+00,-7.319720983505249023e-01,1.531448215246200562e-01,2.800942063331604004e-01,1.260429155081510544e-02
1.249341130256652832e+00,5.770653486251831055e-01,1.092306971549987793e+00,-1.082581281661987305e+00,-1.724290132522583008e+00,1.261424660682678223e+00,-1.118051052093505859e+00,-2.791212499141693115e-01,-4.840902090072631836e-01,6.570177078247070312e-01
1.152284741401672363e+00,4.312984049320220947e-01,6.453827619552612305e-01,-1.618266344070434570e+00,-1.011991024017333984e+00,1.572760105133056641e+00,-4.667848944664001465e-01,-6.201916933059692383e-01,-8.082001209259033203e-01,9.163154363632202148e-01
8.230554312467575073e-02,-4.832381606101989746e-01,-5.306607484817504883e-01,1.318087130784988403e-01,7.646131515502929688e-02,3.246961236000061035e-01,9.128021774813532829e-04,7.397356033325195312e-01,4.715490639209747314e-01,-2.129802852869033813e-01
3.291880786418914795e-01,9.085491895675659180e-01,-6.067580580711364746e-01,-6.460672616958618164e-01,5.989532470703125000e-01,8.062877058982849121e-01,-9.657236933708190918e-02,3.695455491542816162e-01,4.419257044792175293e-01,9.714614599943161011e-02
3.941910862922668457e-01,1.254134058952331543e+00,-1.753218472003936768e-01,-5.785912871360778809e-01,3.357124924659729004e-01,1.174193978309631348e+00,-2.573532164096832275e-01,2.834949828684329987e-02,3.452286422252655029e-01,2.407071739435195923e-01
1.631264537572860718e-01,1.108264327049255371e+00,1.281111240386962891e-01,-1.722734570503234863e-01,-1.689089536666870117e-01,1.120310425758361816e+00,-2.969407737255096436e-01,2.125461697578430176e-01,3.404387533664703369e-01,3.842949867248535156e-03
1.368304640054702759e-01,7.839277386665344238e-01,3.575903475284576416e-01,7.263532280921936035e-02,-2.328271716833114624e-01,7.752997279167175293e-01,-1.431975215673446655e-01,6.823264807462692261e-02,5.062569379806518555e-01,-4.143763482570648193e-01
2.535689771175384521e-01,4.627798125147819519e-02,3.208389282226562500e-01,-3.513464704155921936e-02,-2.560386955738067627e-01,4.615336358547210693e-01,-5.848472937941551208e-02,-1.801780313253402710e-01,3.389939367771148682e-01,-3.061893582344055176e-01
4.186229407787322998e-01,-4.610191881656646729e-01,5.345764160156250000e-01,1.973129063844680786e-01,-2.582799792289733887e-01,1.733541786670684814e-01,-1.767201535403728485e-02,-5.934273004531860352e-01,1.778024733066558838e-01,-5.393373370170593262e-01
7.578667402267456055e-01,-5.899817943572998047e-01,4.900497198104858398e-01,2.788580358028411865e-01,-6.463944315910339355e-01,-1.375999748706817627e-01,-3.695247694849967957e-02,-9.012537598609924316e-01,-2.130217254161834717e-01,-4.562920033931732178e-01
7.458971738815307617e-01,-2.514694631099700928e-01,5.371423959732055664e-01,3.197495639324188232e-01,-1.009375095367431641e+00,-7.952082157135009766e-02,1.602588146924972534e-01,-8.289819955825805664e-01,-2.369079738855361938e-01,4.762775450944900513e-02
3.088466525077819824e-01,-3.661901876330375671e-02,7.377672195434570312e-01,-3.228546082973480225e-01,-6.504864692687988281e-01,3.023668937385082245e-02,6.551807522773742676e-01,-2.316779643297195435e-01,-3.051169514656066895e-01,2.296892404556274414e-01
-8.805871754884719849e-02,3.501453697681427002e-01,6.657453626394271851e-02,-2.251549959182739258e-01,-8.208788186311721802e-02,1.065032258629798889e-01,3.718655407428741455e-01,1.459240466356277466e-01,-4.921502768993377686e-01,4.842559993267059326e-01
-2.476630546152591705e-02,4.734437763690948486e-01,-2.003779411315917969e-01,-6.149191781878471375e-02,-1.155229285359382629e-01,2.563701756298542023e-02,-3.778530657291412354e-01,-4.939228296279907227e-02,-1.816136091947555542e-01,1.557704210281372070e-01
2.624100744724273682e-01,6.470609903335571289e-01,-1.225269064307212830e-01,-2.076556831598281860e-01,5.911692976951599121e-02,9.245640039443969727e-02,-6.631531119346618652e-01,2.451697289943695068e-01,1.803256105631589890e-03,5.607814714312553406e-02
1.877550780773162842e-01,4.935419261455535889e-01,5.545576289296150208e-02,-3.448970317840576172e-01,1.209941320121288300e-02,-1.078446209430694580e-01,-5.947962403297424316e-01,1.526621431112289429e-01,1.557131763547658920e-02,1.181241720914840698e-01
1.228857412934303284e-01,4.068476855754852295e-01,1.460100263357162476e-01,-1.490646302700042725e-01,2.169700860977172852e-01,-1.299842447042465210e-01,-4.316731393337249756e-01,-8.554595988243818283e-04,1.443858295679092407e-01,2.050175219774246216e-01
3.297872841358184814e-01,5.845511555671691895e-01,-7.289335131645202637e-03,-1.548781991004943848e-01,1.730837374925613403e-01,4.226672276854515076e-02,-6.863334178924560547e-01,2.537473738193511963e-01,2.688992023468017578e-01,2.127609848976135254e-01
1.444448083639144897e-01,5.078639984130859375e-01,3.464300930500030518e-01,-2.009136229753494263e-01,4.957551881670951843e-02,6.872538328170776367e-01,-9.671644568443298340e-01,1.103301420807838440e-01,2.066728770732879639e-01,4.109911620616912842e-02
2.742419838905334473e-01,6.701931953430175781e-01,9.962000250816345215e-01,-2.370228916406631470e-01,-9.682553410530090332e-01,1.221354007720947266e+00,-9.721695184707641602e-01,-1.848219931125640869e-01,-2.130878157913684845e-02,-8.114469796419143677e-02
1.001870036125183105e+00,6.474935412406921387e-01,9.837522506713867188e-01,-8.492774963378906250e-01,-1.637698769569396973e+00,1.044114828109741211e+00,-9.855794310569763184e-01,-2.858056724071502686e-01,-6.943510770797729492e-01,7.012538909912109375e-01
1.035747289657592773e+00,3.113117218017578125e-01,2.995623052120208740e-01,-1.588772177696228027e+00,-5.545184016227722168e-01,7.417169213294982910e-01,-1.826587617397308350e-01,-3.308554887771606445e-01,-1.054309129714965820e+00,9.936832785606384277e-01
3.559350669384002686e-01,-1.122622936964035034e-01,-3.596135675907135010e-01,3.215942382812500000e-01,-3.118872046470642090e-01,2.824411094188690186e-01,-1.240374743938446045e-01,3.383964896202087402e-01,3.298228383064270020e-01,-4.314205050468444824e-01
4.180521965026855469e-01,1.259925961494445801e+00,-3.046291470527648926e-01,-2.759376764297485352e-01,-3.539812937378883362e-02,5.962930321693420410e-01,-3.638574182987213135e-01,1.589774340391159058e-01,4.394309520721435547e-01,-1.968557983636856079e-01
2.174418568611145020e-01,1.730255603790283203e+00,3.478518873453140259e-02,-5.248751044273376465e-01,-9.880858659744262695e-02,6.343324780464172363e-01,-7.394680976867675781e-01,1.930774189531803131e-02,2.222733795642852783e-01,4.050750732421875000e-01
4.243324697017669678e-02,9.640662074089050293e-01,9.516341984272003174e-02,-1.939045041799545288e-01,-9.926747530698776245e-02,8.142153620719909668e-01,-9.044857621192932129e-01,1.736813932657241821e-01,4.285986125469207764e-01,-2.584291435778141022e-02
1.128592491149902344e-01,2.071973234415054321e-01,2.876808941364288330e-01,-8.463218808174133301e-02,-5.034793913364410400e-02,9.367023706436157227e-01,-4.534500241279602051e-01,3.613483011722564697e-01,3.817277550697326660e-01,-4.542236030101776123e-01
2.641334831714630127e-01,-1.519785970449447632e-01,4.498887658119201660e-01,-3.662442266941070557e-01,3.460856527090072632e-02,9.258832335472106934e-01,-5.693460702896118164e-01,2.722330093383789062e-01,1.275299787521362305e-01,-6.087470650672912598e-01
2.537306547164916992e-01,7.475607842206954956e-02,4.830822944641113281e-01,-3.776522874832153320e-01,-2.601105906069278717e-02,6.527177095413208008e-01,-4.165024757385253906e-01,2.190129160881042480e-01,-3.796806931495666504e-02,-5.590671896934509277e-01
7.963498830795288086e-01,-2.144365757703781128e-02,2.441028654575347900e-01,-2.460023611783981323e-01,-1.385820209980010986e-01,2.757990360260009766e-01,-4.088536500930786133e-01,2.486692667007446289e-01,-5.043007731437683105e-01,-4.119483232498168945e-01
9.376415610313415527e-01,2.406887523829936981e-02,2.954647541046142578e-01,1.739257574081420898e-01,-5.957503914833068848e-01,1.271338611841201782e-01,-3.222658038139343262e-01,5.294895768165588379e-01,-5.578265786170959473e-01,1.692978739738464355e-01
5.609546303749084473e-01,1.642310768365859985e-01,1.641134321689605713e-01,2.657403945922851562e-01,-5.392284989356994629e-01,-4.877964034676551819e-02,-1.188792660832405090e-01,5.626412630081176758e-01,-4.623503684997558594e-01,2.052789330482482910e-01
4.134413003921508789e-01,3.404541909694671631e-01,8.091355115175247192e-02,-6.173281744122505188e-02,-1.679086536169052124e-01,-2.421065270900726318e-01,-3.942208290100097656e-01,3.276476562023162842e-01,-4.945872426033020020e-01,2.697367966175079346e-01
2.446430325508117676e-01,4.213275611400604248e-01,1.185637637972831726e-01,-6.686945259571075439e-02,-9.040445089340209961e-02,-3.192501962184906006e-01,-5.473496913909912109e-01,8.688119053840637207e-02,-3.779083490371704102e-01,-4.697022214531898499e-02
2.399646788835525513e-01,6.457799077033996582e-01,1.815756261348724365e-01,-3.187877535820007324e-01,-3.398051112890243530e-02,-2.244215458631515503e-01,-5.495894551277160645e-01,1.016571968793869019e-01,-1.213215291500091553e-01,-5.076197534799575806e-02
2.183190286159515381e-01,3.995560407638549805e-01,2.933655083179473877e-01,-2.838703989982604980e-01,1.569158285856246948e-01,-1.996933817863464355e-01,-7.819023132324218750e-01,-1.275346428155899048e-01,-2.909617498517036438e-02,-2.431505732238292694e-02
1.525800377130508423e-01,2.361812591552734375e-01,3.189706802368164062e-01,-3.211060166358947754e-01,-3.905588760972023010e-03,-1.020784601569175720e-01,-8.671197295188903809e-01,-2.011522352695465088e-01,2.303304970264434814e-01,-2.396448105573654175e-01
3.586284220218658447e-01,3.754129111766815186e-01,3.703002929687500000e-01,-1.248417794704437256e-01,-4.429533705115318298e-02,1.196498274803161621e-01,-1.193014025688171387e+00,1.812951825559139252e-02,2.413888871669769287e-01,-3.642235100269317627e-01
-9.539981372654438019e-03,7.508341670036315918e-01,6.630790233612060547e-01,-4.535687714815139771e-02,-2.936865091323852539e-01,7.381532788276672363e-01,-1.241631746292114258e+00,2.100190520286560059e-01,-2.413274161517620087e-02,-4.316959083080291748e-01
2.284000068902969360e-01,6.256287693977355957e-01,7.332589030265808105e-01,-9.219616651535034180e-02,-9.071348905563354492e-01,1.097287774085998535e+00,-1.056717872619628906e+00,-1.509612426161766052e-02,-3.057808279991149902e-01,8.844056725502014160e-02
8.010935187339782715e-01,4.150297343730926514e-01,6.234892606735229492e-01,-7.699358463287353516e-01,-7.626093029975891113e-01,8.321614861488342285e-01,-5.744541287422180176e-01,-4.553089290857315063e-02,-6.587856411933898926e-01,4.513039886951446533e-01
1.013303637504577637e+00,7.068777829408645630e-02,1.131321489810943604e-01,-1.238666772842407227e+00,-2.384238541126251221e-01,1.333376914262771606e-01,2.509302794933319092e-01,-3.464780449867248535e-01,-7.523370981216430664e-01,3.386019766330718994e-01
4.687789678573608398e-01,5.737863779067993164e-01,-2.174436897039413452e-01,4.744574055075645447e-02,-4.647822380065917969e-01,2.262413203716278076e-01,-5.301691889762878418e-01,-5.767683312296867371e-02,1.990758180618286133e-01,-1.327659934759140015e-01
3.598138689994812012e-01,1.516134738922119141e+00,-8.127182722091674805e-02,-3.333972990512847900e-01,-2.577333450317382812e-01,3.104352355003356934e-01,-9.866659045219421387e-01,-2.704459726810455322e-01,-3.706308081746101379e-02,-7.751982659101486206e-02
1.666837036609649658e-01,1.846877694129943848e+00,3.963363468647003174e-01,-4.595602154731750488e-01,-2.670665979385375977e-01,2.530195116996765137e-01,-8.794053196907043457e-01,-2.540124654769897461e-01,-1.678772568702697754e-01,4.865016788244247437e-02
3.195864260196685791e-01,3.478704094886779785e-01,3.183754682540893555e-01,-4.589046239852905273e-01,2.458013594150543213e-02,7.251968234777450562e-02,-7.169550061225891113e-01,-6.128380820155143738e-02,-2.646116912364959717e-01,-1.569552272558212280e-01
3.095505535602569580e-01,-5.427706837654113770e-01,2.254449874162673950e-01,-4.320055544376373291e-01,1.397263407707214355e-01,1.776507794857025146e-01,-4.678329825401306152e-01,-9.256933815777301788e-03,1.273344457149505615e-01,-6.452932953834533691e-01
1.832072734832763672e-01,-3.650738894939422607e-01,2.614338696002960205e-01,-3.498735129833221436e-01,6.260060518980026245e-02,2.533099353313446045e-01,-5.806500315666198730e-01,1.094680652022361755e-01,6.426860392093658447e-02,-3.141281008720397949e-01
2.089296579360961914e-01,2.273368984460830688e-01,3.115036189556121826e-01,-2.735032141208648682e-01,-1.910790503025054932e-01,3.487878441810607910e-01,-5.660549998283386230e-01,3.265303969383239746e-01,-3.106035590171813965e-01,-3.203065097332000732e-01
2.958546280860900879e-01,2.416600435972213745e-01,1.289630532264709473e-01,-1.538226306438446045e-01,-1.291520614176988602e-02,2.757130265235900879e-01,-4.430835545063018799e-01,4.176946878433227539e-01,-5.210211277008056641e-01,-3.106895089149475098e-01
3.998558819293975830e-01,7.028324156999588013e-02,-2.387439608573913574e-01,4.051279425621032715e-01,-1.043851971626281738e-01,9.166721254587173462e-02,-4.920800626277923584e-01,5.004659891128540039e-01,-6.822974085807800293e-01,-1.363950073719024658e-01
3.121907711029052734e-01,-2.444736659526824951e-01,-1.167407929897308350e-01,6.733534336090087891e-01,-1.451584994792938232e-01,-1.587419956922531128e-01,-6.766694188117980957e-01,2.783555090427398682e-01,-5.347780585289001465e-01,-2.663651704788208008e-01
2.596415877342224121e-01,-4.683453589677810669e-02,1.384606510400772095e-01,3.568494915962219238e-01,2.384586259722709656e-03,-3.513307273387908936e-01,-3.503558337688446045e-01,2.700679898262023926e-01,-5.472718477249145508e-01,-2.545889019966125488e-01
1.254512816667556763e-01,8.089496195316314697e-02,1.497790813446044922e-01,-9.226699173450469971e-02,-2.118071615695953369e-01,-3.007432818412780762e-01,-2.597189545631408691e-01,1.711661815643310547e-01,-3.972522616386413574e-01,-1.717572063207626343e-01
1.746367961168289185e-01,2.791903316974639893e-01,4.374597668647766113e-01,-3.357832133769989014e-01,-5.173923075199127197e-02,-1.698825508356094360e-01,-1.896126717329025269e-01,-2.161894552409648895e-02,-4.191562235355377197e-01,-3.744307458400726318e-01
3.361778557300567627e-01,2.628554105758666992e-01,4.386418461799621582e-01,-5.563665032386779785e-01,-6.135739013552665710e-02,-4.283279553055763245e-02,-3.513881862163543701e-01,-1.252082828432321548e-02,-2.684472799301147461e-01,-6.190667152404785156e-01
3.575579226016998291e-01,9.598778188228607178e-02,5.270869731903076172e-01,-3.656637370586395264e-01,-2.013651430606842041e-01,1.693774573504924774e-02,-6.798441410064697266e-01,-9.704016894102096558e-02,-1.572489887475967407e-01,-6.978814005851745605e-01
1.205749958753585815e-01,2.961660027503967285e-01,7.260007858276367188e-01,-7.041732221841812134e-02,-3.561585545539855957e-01,2.643590271472930908e-01,-5.170740485191345215e-01,-8.544635027647018433e-02,-1.681559234857559204e-01,-7.397108078002929688e-01
-1.352922804653644562e-02,5.043202042579650879e-01,5.692571401596069336e-01,-5.783301591873168945e-02,-8.897253274917602539e-01,8.035010695457458496e-01,-5.615276694297790527e-01,-2.903684079647064209e-01,-2.189205437898635864e-01,-5.314183235168457031e-01
2.085636854171752930e-01,2.088576257228851318e-01,3.587266504764556885e-01,-4.019887745380401611e-01,-1.246723890304565430e+00,7.477735877037048340e-01,-3.864085376262664795e-01,-4.762483239173889160e-01,-1.932642012834548950e-01,8.465316891670227051e-02
4.601696431636810303e-01,2.278150320053100586e-01,-1.577367335557937622e-01,-5.104836821556091309e-01,-5.588880181312561035e-01,3.887276649475097656e-01,1.892023682594299316e-01,-5.899143815040588379e-01,-2.515866458415985107e-01,3.681963980197906494e-01
5.916384458541870117e-01,2.292303740978240967e-01,-7.637757342308759689e-03,-4.578686952590942383e-01,3.622765839099884033e-02,-9.068234264850616455e-02,5.296229720115661621e-01,-1.751718074083328247e-01,-5.181969404220581055e-01,3.460638523101806641e-01
2.665242850780487061e-01,8.276351094245910645e-01,-3.329345583915710449e-01,-1.023699998855590820e+00,-7.023986428976058960e-02,5.350887775421142578e-01,-5.905482172966003418e-01,-2.191048562526702881e-01,-4.271377623081207275e-02,-7.805105298757553101e-02
1.189796477556228638e-01,1.432273864746093750e+00,-1.546024233102798462e-01,-5.670754313468933105e-01,6.407765299081802368e-02,6.876469850540161133e-01,-1.098706841468811035e+00,-3.865920305252075195e-01,2.680815458297729492e-01,-4.349308013916015625e-01
-2.045294456183910370e-02,1.892227649688720703e+00,3.207591474056243896e-01,-7.067600488662719727e-01,2.077732980251312256e-02,4.343436360359191895e-01,-5.565175414085388184e-01,-1.355382949113845825e-01,-1.229827702045440674e-01,-3.726018071174621582e-01
2.430962920188903809e-01,4.573863148689270020e-01,2.126145213842391968e-01,-7.634886503219604492e-01,2.735893428325653076e-02,-2.121930271387100220e-01,1.602997630834579468e-02,-6.687311828136444092e-02,-5.127249956130981445e-01,-2.261446714401245117e-01
4.582347571849822998e-01,-3.364233672618865967e-01,5.897367745637893677e-02,-9.156019091606140137e-01,-3.960713744163513184e-02,-3.234885334968566895e-01,5.514339357614517212e-02,-2.884606719017028809e-01,-2.651557922363281250e-01,-1.732331663370132446e-01
2.538836896419525146e-01,-3.152437210083007812e-01,1.740073114633560181e-01,-5.088528990745544434e-01,-2.623052895069122314e-01,-3.337914347648620605e-01,-2.020899802446365356e-01,-1.886255741119384766e-01,2.078298926353454590e-01,-1.731706708669662476e-01
3.347846269607543945e-01,7.759028673171997070e-02,1.725642532110214233e-01,-1.370584368705749512e-01,-2.651818096637725830e-01,-2.554126977920532227e-01,-2.256101518869400024e-01,1.915563046932220459e-01,-7.524779438972473145e-02,-2.585493624210357666e-01
1.218519136309623718e-01,1.222914010286331177e-01,-7.260217517614364624e-02,1.992159932851791382e-01,-2.481696009635925293e-01,-9.830594062805175781e-02,-5.438341945409774780e-02,2.083804011344909668e-01,-3.682832792401313782e-02,-3.055801689624786377e-01
-5.778471380472183228e-02,-1.089590936899185181e-01,-2.475986815989017487e-02,3.431999385356903076e-01,-1.144371032714843750e-01,2.242246568202972412e-01,-4.327023625373840332e-01,6.968703120946884155e-02,-1.556634306907653809e-01,-7.136108875274658203e-01
-4.449886083602905273e-02,-3.624706864356994629e-01,1.710615120828151703e-02,5.814357399940490723e-01,-1.571133136749267578e-01,2.093091458082199097e-01,-6.019619703292846680e-01,-2.566802874207496643e-02,-2.163859009742736816e-01,-1.018210172653198242e+00
2.095837704837322235e-02,-3.244164884090423584e-01,1.746644228696823120e-01,3.257242143154144287e-01,1.271191537380218506e-01,3.759073317050933838e-01,-1.376204192638397217e-01,7.555059343576431274e-02,-2.430702596902847290e-01,-8.055244684219360352e-01
1.781053841114044189e-02,-3.630971014499664307e-01,1.356471180915832520e-01,6.340863555669784546e-02,6.966507434844970703e-02,2.146901488304138184e-01,-1.247853040695190430e-01,2.548806965351104736e-01,-3.747716248035430908e-01,-6.548972725868225098e-01
1.690949685871601105e-02,-1.598088890314102173e-01,9.094215184450149536e-02,-1.264978200197219849e-02,6.124140322208404541e-02,2.575957775115966797e-02,3.059362759813666344e-03,1.858222633600234985e-01,-5.143077969551086426e-01,-6.414974331855773926e-01
5.704455077648162842e-02,5.062431842088699341e-02,2.153003066778182983e-01,-4.164970219135284424e-01,-2.235089093446731567e-01,-7.779444009065628052e-02,4.942728579044342041e-02,-5.798484757542610168e-02,-4.739266037940979004e-01,-7.602414488792419434e-01
3.688164800405502319e-02,4.680080339312553406e-03,3.765254318714141846e-01,-3.237252831459045410e-01,-3.935058712959289551e-01,-3.821617737412452698e-02,-1.616012305021286011e-01,-2.763629555702209473e-01,-4.207220971584320068e-01,-6.039667725563049316e-01
3.816423192620277405e-02,3.460304439067840576e-02,5.417301058769226074e-01,-1.690490096807479858e-01,-1.002625584602355957e+00,-4.468474164605140686e-02,-3.190779983997344971e-01,-4.915781617164611816e-01,-1.201717704534530640e-01,-2.122248262166976929e-01
-3.673528879880905151e-02,-2.446054369211196899e-01,2.849905788898468018e-01,-2.477619647979736328e-01,-1.257502079010009766e+00,7.211212068796157837e-02,-4.193694591522216797e-01,-5.799212455749511719e-01,3.543913364410400391e-01,-1.946289688348770142e-01
1.585037708282470703e-01,-2.563327252864837646e-01,3.260254487395286560e-02,-2.089734971523284912e-01,-1.150363683700561523e+00,3.216717541217803955e-01,-2.660275101661682129e-01,-6.964523792266845703e-01,5.553691983222961426e-01,2.143895477056503296e-01
1.250132266432046890e-02,3.913227468729019165e-02,-1.363236606121063232e-01,-4.022835791110992432e-01,-4.245296418666839600e-01,-8.206018246710300446e-03,4.072921872138977051e-01,-6.151745319366455078e-01,2.246837317943572998e-01,1.306979209184646606e-01
2.010844796895980835e-01,4.740762114524841309e-01,2.288206852972507477e-02,-3.617943823337554932e-01,-4.256512597203254700e-02,-2.189842313528060913e-01,5.587739348411560059e-01,2.454918436706066132e-02,-1.972644478082656860e-01,2.579820454120635986e-01
1.716764718294143677e-01,3.357071280479431152e-01,2.063064128160476685e-01,-4.444481134414672852e-01,5.085765719413757324e-01,1.980302482843399048e-01,-2.244016081094741821e-01,-6.278193555772304535e-03,2.646728456020355225e-01,-3.273006975650787354e-01
-2.374881207942962646e-01,7.131544947624206543e-01,-4.478378295898437500e-01,-2.396479696035385132e-01,4.373595416545867920e-01,8.036413192749023438e-01,-5.332488417625427246e-01,7.320435345172882080e-02,8.098669052124023438e-01,-4.308822751045227051e-01
-5.432963371276855469e-01,1.214989423751831055e+00,-6.778676509857177734e-01,-5.283554792404174805e-01,4.656425416469573975e-01,6.766083240509033203e-01,-3.217503130435943604e-01,6.498113274574279785e-01,6.697022914886474609e-01,-4.174635410308837891e-01
-3.992773890495300293e-01,5.117330551147460938e-01,-9.110990166664123535e-01,-9.324211478233337402e-01,2.964369654655456543e-01,1.254296600818634033e-01,1.151089668273925781e-01,4.277809560298919678e-01,1.788180023431777954e-01,3.559538125991821289e-01
-2.379912137985229492e-01,2.308886349201202393e-01,-7.602096199989318848e-01,-1.062995076179504395e+00,1.205310076475143433e-01,-1.049428731203079224e-01,-2.720946632325649261e-02,1.657665371894836426e-01,3.785720765590667725e-01,3.571349084377288818e-01
-3.075316250324249268e-01,1.508718281984329224e-01,-3.437147736549377441e-01,-5.545181632041931152e-01,-4.168250132352113724e-03,-1.772425919771194458e-01,-2.097320556640625000e-01,4.589806497097015381e-02,7.309280633926391602e-01,3.925930261611938477e-01
1.161050423979759216e-02,1.861642301082611084e-01,8.907787501811981201e-02,9.027820080518722534e-03,-5.751041695475578308e-02,-1.358374506235122681e-01,-3.332008123397827148e-01,1.769862323999404907e-01,6.196210384368896484e-01,5.116954818367958069e-02
-1.009963229298591614e-01,2.625129818916320801e-01,3.888301178812980652e-02,-3.742972761392593384e-02,-5.093026533722877502e-02,8.954211324453353882e-02,-4.980647861957550049e-01,2.031912952661514282e-01,5.291264653205871582e-01,-2.884517610073089600e-01
-5.246898531913757324e-02,2.254011482000350952e-01,5.409784987568855286e-02,-1.169723924249410629e-02,-2.791437804698944092e-01,2.546775043010711670e-01,-4.668663442134857178e-01,1.405332237482070923e-01,1.267901808023452759e-01,-3.916647732257843018e-01
2.688670158386230469e-01,8.171520195901393890e-03,1.538884937763214111e-01,-4.112976044416427612e-02,-3.265210688114166260e-01,4.552657306194305420e-01,-4.638750255107879639e-01,1.070886030793190002e-01,1.876443475484848022e-01,-5.876390337944030762e-01
2.534836903214454651e-02,-1.869723573327064514e-02,9.786838293075561523e-02,1.554368436336517334e-01,-4.038318097591400146e-01,4.217851459980010986e-01,-5.932327508926391602e-01,1.690017282962799072e-01,-1.907284110784530640e-01,-8.033331632614135742e-01
-1.737491339445114136e-01,-1.810650974512100220e-01,1.100067123770713806e-01,3.794026076793670654e-01,-1.500472128391265869e-01,2.632161378860473633e-01,-5.547421574592590332e-01,6.312476843595504761e-02,-1.187781617045402527e-01,-7.418179512023925781e-01
-7.135231047868728638e-02,-2.271321266889572144e-01,-1.022099032998085022e-01,4.811372458934783936e-01,4.820870235562324524e-02,-9.172235429286956787e-02,-5.114246606826782227e-01,1.733182556927204132e-02,7.549070287495851517e-03,-4.514609277248382568e-01
-3.381270766258239746e-01,-4.107167124748229980e-01,-2.596736848354339600e-01,3.022343814373016357e-01,-1.865230267867445946e-03,-2.713191211223602295e-01,-1.562563031911849976e-01,-5.820346623659133911e-02,-1.751520484685897827e-01,-3.544187545776367188e-01
-5.002757310867309570e-01,-3.984600603580474854e-01,-1.791449785232543945e-01,4.118587374687194824e-01,-7.768099009990692139e-02,-6.397194266319274902e-01,-1.100672334432601929e-01,-7.058246731758117676e-01,1.464282572269439697e-01,-1.420428305864334106e-01
-2.712610960006713867e-01,-6.729773283004760742e-01,-1.127073019742965698e-01,2.976540029048919678e-01,-4.937039911746978760e-01,-7.708950042724609375e-01,-2.763377726078033447e-01,-7.607168555259704590e-01,5.284722447395324707e-01,1.486425101757049561e-01
-2.854495048522949219e-01,-8.956790566444396973e-01,3.116915002465248108e-02,7.948897778987884521e-02,-9.366913437843322754e-01,-6.991176009178161621e-01,-5.094847083091735840e-01,-5.928789973258972168e-01,9.647672772407531738e-01,1.661328971385955811e-01
-1.845516860485076904e-01,-6.511310338973999023e-01,-2.541389763355255127e-01,-1.793635040521621704e-01,-7.612833976745605469e-01,-3.028416931629180908e-01,-5.395756959915161133e-01,-5.087888240814208984e-01,9.510048627853393555e-01,1.867826730012893677e-01
2.156435512006282806e-02,-2.099829167127609253e-01,-2.147841006517410278e-01,-4.437577724456787109e-01,-3.354119360446929932e-01,-4.348180443048477173e-02,2.127543538808822632e-01,-2.056080847978591919e-01,1.308620274066925049e-01,1.588874459266662598e-01
3.056706786155700684e-01,4.792421460151672363e-01,1.046929359436035156e-01,-4.972696006298065186e-01,-1.389932334423065186e-01,8.502049022354185581e-04,5.565243363380432129e-01,1.914444118738174438e-01,-4.385120272636413574e-01,1.978055089712142944e-01
-1.450653970241546631e-01,-6.483441591262817383e-02,-7.733085658401250839e-03,-4.100931063294410706e-02,4.815582931041717529e-01,-2.536492347717285156e-01,-2.698259614408016205e-02,-1.187029946595430374e-02,4.638627544045448303e-02,-2.286220714449882507e-02
-6.899214386940002441e-01,3.371432721614837646e-01,-7.612421512603759766e-01,5.458204448223114014e-02,3.696957230567932129e-01,8.656530827283859253e-02,-1.270492970943450928e-01,3.498853743076324463e-01,8.750934004783630371e-01,-8.192437887191772461e-02
-1.212298870086669922e+00,2.642634809017181396e-01,-1.572865605354309082e+00,-8.171091228723526001e-02,3.238214254379272461e-01,4.239515066146850586e-01,-3.458005189895629883e-02,8.732249736785888672e-01,1.165566444396972656e+00,3.869469836354255676e-02
-1.509125709533691406e+00,-1.836720108985900879e-01,-1.905185818672180176e+00,-3.071817159652709961e-01,5.883652567863464355e-01,2.562933564186096191e-01,1.272473335266113281e-01,7.518602609634399414e-01,1.100256443023681641e+00,6.530634164810180664e-01
-1.720521926879882812e+00,-2.002560794353485107e-01,-1.628871202468872070e+00,-5.262461900711059570e-01,5.934147834777832031e-01,2.962606847286224365e-01,-5.295695364475250244e-02,5.590469241142272949e-01,1.509811758995056152e+00,6.353694200515747070e-01
-1.887915611267089844e+00,-3.430514037609100342e-01,-1.152773618698120117e+00,-6.980984807014465332e-01,5.842337608337402344e-01,3.429387509822845459e-01,-1.611150950193405151e-01,6.400401592254638672e-01,1.759069919586181641e+00,5.678343176841735840e-01
-1.859183192253112793e+00,-3.187928795814514160e-01,-5.599613189697265625e-01,-6.664465069770812988e-01,6.208599209785461426e-01,3.558087646961212158e-01,-4.602905213832855225e-01,5.982660651206970215e-01,1.407800316810607910e+00,4.525760114192962646e-01
-1.766741991043090820e+00,-1.087970659136772156e-01,-2.889210879802703857e-01,-5.579911470413208008e-01,5.483499169349670410e-01,3.620067834854125977e-01,-5.140591263771057129e-01,1.938574761152267456e-01,1.486819744110107422e+00,5.085018277168273926e-01
-1.405505061149597168e+00,-3.854789733886718750e-01,-2.433796674013137817e-01,-7.327914834022521973e-01,3.686036765575408936e-01,4.372469484806060791e-01,-3.059070110321044922e-01,4.090957939624786377e-01,1.321743607521057129e+00,6.052167415618896484e-01
-1.434236168861389160e+00,-4.331844151020050049e-01,-5.275797247886657715e-01,-5.503990054130554199e-01,1.457981765270233154e-01,3.780537545680999756e-01,-1.408616006374359131e-01,3.118895292282104492e-01,1.427185893058776855e+00,5.066429376602172852e-01
-1.427595138549804688e+00,-2.678270936012268066e-01,-5.377303957939147949e-01,-7.333082705736160278e-02,-1.536635607481002808e-01,4.374147057533264160e-01,-3.521356880664825439e-01,2.023287713527679443e-01,1.225807785987854004e+00,4.877743422985076904e-01
-1.550453066825866699e+00,-5.228825211524963379e-01,-3.290969431400299072e-01,4.171437621116638184e-01,1.090112980455160141e-02,4.220315217971801758e-01,-5.083380937576293945e-01,-1.672611385583877563e-02,1.251511812210083008e+00,1.666288375854492188e-01
-1.491289734840393066e+00,-8.006142973899841309e-01,-4.749648869037628174e-01,8.329783678054809570e-01,6.182889342308044434e-01,4.344174265861511230e-01,-7.875559926033020020e-01,8.804109692573547363e-02,1.471355438232421875e+00,1.504567414522171021e-01
-1.543777585029602051e+00,-9.637130498886108398e-01,-6.997324228286743164e-01,9.729615449905395508e-01,1.104204535484313965e+00,1.780384927988052368e-01,-5.308158993721008301e-01,3.295631110668182373e-01,1.492170929908752441e+00,1.238892152905464172e-01
-1.397146701812744141e+00,-1.081352949142456055e+00,-9.253873229026794434e-01,1.014113068580627441e+00,1.381377100944519043e+00,-5.526110529899597168e-01,-5.337797999382019043e-01,-4.458906501531600952e-02,1.507749557495117188e+00,-1.307368557900190353e-02
-1.101602315902709961e+00,-1.118872284889221191e+00,-2.893600165843963623e-01,8.398419022560119629e-01,8.580985665321350098e-01,-9.167621731758117676e-01,-3.574864566326141357e-01,-1.838492602109909058e-01,1.560703516006469727e+00,2.487049549818038940e-01
-8.741458058357238770e-01,-8.646061420440673828e-01,-2.329765111207962036e-01,7.522169351577758789e-01,2.308814376592636108e-01,-6.004098653793334961e-01,-4.318238794803619385e-01,2.260019779205322266e-01,1.095628142356872559e+00,-8.627256751060485840e-02
-3.647128045558929443e-01,-5.187715291976928711e-01,-8.652480691671371460e-02,6.387596577405929565e-02,-2.020326703786849976e-01,-2.987962067127227783e-01,-3.890005350112915039e-01,1.643866300582885742e-01,9.121609330177307129e-01,-2.310142815113067627e-01
2.279373258352279663e-01,3.024335391819477081e-02,1.119904667139053345e-01,-3.138515353202819824e-01,-3.153734803199768066e-01,2.469179779291152954e-01,-1.603640764951705933e-01,1.562153697013854980e-01,-6.299541145563125610e-02,3.859907984733581543e-01
3.896621167659759521e-01,1.192767918109893799e-01,1.862899586558341980e-02,-2.814194262027740479e-01,-1.722762137651443481e-01,2.337884157896041870e-01,3.668836355209350586e-01,1.386528313159942627e-01,-3.799926340579986572e-01,4.212319850921630859e-01
-1.052539348602294922e-01,6.266642361879348755e-02,8.328203111886978149e-02,6.974045187234878540e-02,3.485367447137832642e-02,-8.934989571571350098e-03,2.538932114839553833e-02,-3.832430392503738403e-02,8.550571650266647339e-02,-6.410624086856842041e-02
-2.472797632217407227e-01,2.888686954975128174e-01,2.686958387494087219e-02,3.467677831649780273e-01,-2.577642500400543213e-01,-3.985030949115753174e-01,3.149496763944625854e-02,-2.406949736177921295e-02,3.785655200481414795e-01,-8.212722092866897583e-02
-1.005046010017395020e+00,-2.105148732662200928e-01,-1.136171340942382812e+00,3.675159215927124023e-01,5.566964298486709595e-02,-2.428588122129440308e-01,4.194788262248039246e-02,1.704079359769821167e-01,5.088439583778381348e-01,3.894545137882232666e-01
-1.316354036331176758e+00,-7.589861154556274414e-01,-1.445767998695373535e+00,2.551501691341400146e-01,3.292616307735443115e-01,-1.470523923635482788e-01,8.336029946804046631e-02,2.270558923482894897e-01,6.930649280548095703e-01,6.982839703559875488e-01
-1.662433147430419922e+00,-1.084879517555236816e+00,-1.354369282722473145e+00,1.002596840262413025e-01,2.736687660217285156e-01,-2.077882178127765656e-02,-1.207647398114204407e-01,3.191701173782348633e-01,1.114607095718383789e+00,7.974497079849243164e-01
-2.620994091033935547e+00,-1.417444467544555664e+00,-8.859832882881164551e-01,-3.041660189628601074e-01,5.296928882598876953e-01,5.299970507621765137e-01,-4.549336060881614685e-02,4.386210441589355469e-01,1.280822277069091797e+00,6.774200797080993652e-01
-2.614745140075683594e+00,-1.423864603042602539e+00,-4.913247823715209961e-01,-3.198234140872955322e-01,4.093178510665893555e-01,5.123884081840515137e-01,-1.451170742511749268e-01,3.044613897800445557e-01,1.095160722732543945e+00,6.914001703262329102e-01
-2.969451665878295898e+00,-1.180287122726440430e+00,-5.067406594753265381e-02,-1.318628061562776566e-02,3.442621827125549316e-01,3.974374830722808838e-01,-7.504080981016159058e-02,1.010035648941993713e-01,1.116050004959106445e+00,4.442561566829681396e-01
-2.780406475067138672e+00,-1.519330620765686035e+00,-1.878830939531326294e-01,-6.771934032440185547e-02,1.236991211771965027e-01,2.359719723463058472e-01,1.540288608521223068e-02,1.390685141086578369e-01,1.517076134681701660e+00,4.072827994823455811e-01
-2.545063018798828125e+00,-1.481406569480895996e+00,-4.006068408489227295e-01,1.203423589468002319e-01,2.789473235607147217e-01,1.253686547279357910e-01,1.091116815805435181e-01,1.693824976682662964e-01,1.857472300529479980e+00,5.321466326713562012e-01
-2.310051202774047852e+00,-1.714121222496032715e+00,-1.075242996215820312e+00,-4.147512093186378479e-02,5.484337210655212402e-01,5.887457132339477539e-01,5.393825173377990723e-01,2.506400346755981445e-01,1.828117966651916504e+00,9.555569887161254883e-01
-2.474689006805419922e+00,-1.541775703430175781e+00,-1.071611881256103516e+00,7.179979979991912842e-02,4.979406893253326416e-01,8.730294704437255859e-01,2.360856980085372925e-01,4.326553940773010254e-01,1.931852221488952637e+00,5.716816186904907227e-01
